digraph Tree {
node [shape=box, style="rounded", color="black", fontname=helvetica] ;
edge [fontname=helvetica] ;
0 [label="AVGFTHG <= 1.8\nmse = 1.9\nsamples = 207\nvalue = 1.6"] ;
1 [label="HST_10 <= 8.5\nmse = 1.0\nsamples = 116\nvalue = 1.2"] ;
0 -> 1 [labeldistance=2.5, labelangle=45, headlabel="True"] ;
2 [label="HST_5 <= 5.5\nmse = 1.0\nsamples = 113\nvalue = 1.2"] ;
1 -> 2 ;
3 [label="HTGDIFF_9 <= -2.5\nmse = 0.9\nsamples = 87\nvalue = 1.0"] ;
2 -> 3 ;
4 [label="mse = 0.7\nsamples = 3\nvalue = 2.2"] ;
3 -> 4 ;
5 [label="mse = 0.8\nsamples = 84\nvalue = 1.0"] ;
3 -> 5 ;
6 [label="HTGDIFF_1 <= -1.5\nmse = 0.9\nsamples = 26\nvalue = 1.7"] ;
2 -> 6 ;
7 [label="mse = 1.4\nsamples = 5\nvalue = 0.6"] ;
6 -> 7 ;
8 [label="mse = 0.6\nsamples = 21\nvalue = 1.8"] ;
6 -> 8 ;
9 [label="mse = 0.0\nsamples = 3\nvalue = 3.0"] ;
1 -> 9 ;
10 [label="HST_5 <= 1.5\nmse = 2.6\nsamples = 91\nvalue = 2.1"] ;
0 -> 10 [labeldistance=2.5, labelangle=-45, headlabel="False"] ;
11 [label="AVGFTHG <= 3.5\nmse = 0.8\nsamples = 22\nvalue = 0.9"] ;
10 -> 11 ;
12 [label="AVGHTGDIFF <= 2.1\nmse = 0.4\nsamples = 18\nvalue = 0.7"] ;
11 -> 12 ;
13 [label="mse = 0.3\nsamples = 15\nvalue = 1.0"] ;
12 -> 13 ;
14 [label="mse = 0.0\nsamples = 3\nvalue = 0.0"] ;
12 -> 14 ;
15 [label="FTHG_3 <= 2.0\nmse = 1.2\nsamples = 4\nvalue = 2.5"] ;
11 -> 15 ;
16 [label="mse = 0.7\nsamples = 3\nvalue = 2.0"] ;
15 -> 16 ;
17 [label="mse = 0.0\nsamples = 1\nvalue = 4.0"] ;
15 -> 17 ;
18 [label="HST_5 <= 5.5\nmse = 2.7\nsamples = 69\nvalue = 2.4"] ;
10 -> 18 ;
19 [label="HTGDIFF_7 <= -2.5\nmse = 2.9\nsamples = 30\nvalue = 3.1"] ;
18 -> 19 ;
20 [label="mse = 3.6\nsamples = 2\nvalue = 6.7"] ;
19 -> 20 ;
21 [label="mse = 2.1\nsamples = 28\nvalue = 2.8"] ;
19 -> 21 ;
22 [label="HTGDIFF_3 <= -1.5\nmse = 1.8\nsamples = 39\nvalue = 1.9"] ;
18 -> 22 ;
23 [label="mse = 0.0\nsamples = 1\nvalue = 6.0"] ;
22 -> 23 ;
24 [label="mse = 1.2\nsamples = 38\nvalue = 1.7"] ;
22 -> 24 ;
}