digraph Tree {
node [shape=box, style="rounded", color="black", fontname=helvetica] ;
edge [fontname=helvetica] ;
0 [label="AVGHTGDIFF <= 0.9\nmse = 2.3\nsamples = 202\nvalue = 1.8"] ;
1 [label="HTGDIFF_19 <= 5.0\nmse = 1.5\nsamples = 154\nvalue = 1.5"] ;
0 -> 1 [labeldistance=2.5, labelangle=45, headlabel="True"] ;
2 [label="HTGDIFF_12 <= 2.5\nmse = 1.3\nsamples = 153\nvalue = 1.4"] ;
1 -> 2 ;
3 [label="AVGFTHG <= 1.6\nmse = 1.3\nsamples = 144\nvalue = 1.5"] ;
2 -> 3 ;
4 [label="HTGDIFF_4 <= -0.5\nmse = 1.1\nsamples = 71\nvalue = 1.2"] ;
3 -> 4 ;
5 [label="HTGDIFF_10 <= -0.5\nmse = 0.7\nsamples = 30\nvalue = 0.7"] ;
4 -> 5 ;
6 [label="mse = 0.0\nsamples = 5\nvalue = 0.0"] ;
5 -> 6 ;
7 [label="HTGDIFF_6 <= -1.5\nmse = 0.7\nsamples = 25\nvalue = 0.9"] ;
5 -> 7 ;
8 [label="HTGDIFF_2 <= -2.5\nmse = 0.1\nsamples = 6\nvalue = 0.1"] ;
7 -> 8 ;
9 [label="mse = 0.0\nsamples = 1\nvalue = 1.0"] ;
8 -> 9 ;
10 [label="mse = 0.0\nsamples = 5\nvalue = 0.0"] ;
8 -> 10 ;
11 [label="Day <= 16.5\nmse = 0.6\nsamples = 19\nvalue = 1.2"] ;
7 -> 11 ;
12 [label="HTGDIFF_8 <= 1.0\nmse = 0.3\nsamples = 9\nvalue = 0.7"] ;
11 -> 12 ;
13 [label="HTGDIFF_5 <= -0.5\nmse = 0.2\nsamples = 8\nvalue = 0.6"] ;
12 -> 13 ;
14 [label="mse = 0.0\nsamples = 3\nvalue = 0.0"] ;
13 -> 14 ;
15 [label="AVGFTHG <= 1.1\nmse = 0.2\nsamples = 5\nvalue = 0.8"] ;
13 -> 15 ;
16 [label="mse = 0.0\nsamples = 2\nvalue = 0.0"] ;
15 -> 16 ;
17 [label="mse = 0.0\nsamples = 3\nvalue = 1.0"] ;
15 -> 17 ;
18 [label="mse = 0.0\nsamples = 1\nvalue = 2.0"] ;
12 -> 18 ;
19 [label="HTGDIFF_5 <= -0.5\nmse = 0.5\nsamples = 10\nvalue = 1.5"] ;
11 -> 19 ;
20 [label="HTGDIFF_4 <= -1.5\nmse = 0.2\nsamples = 4\nvalue = 2.0"] ;
19 -> 20 ;
21 [label="HTGDIFF_15 <= -1.0\nmse = 0.1\nsamples = 3\nvalue = 2.1"] ;
20 -> 21 ;
22 [label="mse = 0.0\nsamples = 1\nvalue = 3.0"] ;
21 -> 22 ;
23 [label="mse = 0.0\nsamples = 2\nvalue = 2.0"] ;
21 -> 23 ;
24 [label="mse = 0.0\nsamples = 1\nvalue = 1.0"] ;
20 -> 24 ;
25 [label="HTGDIFF_3 <= -2.5\nmse = 0.3\nsamples = 6\nvalue = 1.1"] ;
19 -> 25 ;
26 [label="mse = 0.0\nsamples = 2\nvalue = 2.0"] ;
25 -> 26 ;
27 [label="Day <= 25.5\nmse = 0.1\nsamples = 4\nvalue = 0.9"] ;
25 -> 27 ;
28 [label="mse = 0.0\nsamples = 3\nvalue = 1.0"] ;
27 -> 28 ;
29 [label="mse = 0.0\nsamples = 1\nvalue = 0.0"] ;
27 -> 29 ;
30 [label="Month <= 4.5\nmse = 1.1\nsamples = 41\nvalue = 1.6"] ;
4 -> 30 ;
31 [label="HTGDIFF_9 <= -0.5\nmse = 0.4\nsamples = 12\nvalue = 0.8"] ;
30 -> 31 ;
32 [label="mse = 0.0\nsamples = 4\nvalue = 0.0"] ;
31 -> 32 ;
33 [label="AVGFTHG <= 1.6\nmse = 0.3\nsamples = 8\nvalue = 1.1"] ;
31 -> 33 ;
34 [label="HTGDIFF_11 <= 0.5\nmse = 0.2\nsamples = 7\nvalue = 1.2"] ;
33 -> 34 ;
35 [label="HTGDIFF_13 <= -1.0\nmse = 0.1\nsamples = 6\nvalue = 1.1"] ;
34 -> 35 ;
36 [label="mse = 0.0\nsamples = 1\nvalue = 2.0"] ;
35 -> 36 ;
37 [label="mse = 0.0\nsamples = 5\nvalue = 1.0"] ;
35 -> 37 ;
38 [label="mse = 0.0\nsamples = 1\nvalue = 2.0"] ;
34 -> 38 ;
39 [label="mse = 0.0\nsamples = 1\nvalue = 0.0"] ;
33 -> 39 ;
40 [label="HTGDIFF_2 <= -1.5\nmse = 1.0\nsamples = 29\nvalue = 1.9"] ;
30 -> 40 ;
41 [label="HTGDIFF_3 <= 2.5\nmse = 1.1\nsamples = 5\nvalue = 2.7"] ;
40 -> 41 ;
42 [label="AVGHTGDIFF <= -0.0\nmse = 0.4\nsamples = 4\nvalue = 2.9"] ;
41 -> 42 ;
43 [label="HTGDIFF_2 <= -2.5\nmse = 0.2\nsamples = 3\nvalue = 3.2"] ;
42 -> 43 ;
44 [label="mse = 0.0\nsamples = 2\nvalue = 3.0"] ;
43 -> 44 ;
45 [label="mse = 0.0\nsamples = 1\nvalue = 4.0"] ;
43 -> 45 ;
46 [label="mse = 0.0\nsamples = 1\nvalue = 2.0"] ;
42 -> 46 ;
47 [label="mse = 0.0\nsamples = 1\nvalue = 0.0"] ;
41 -> 47 ;
48 [label="HTGDIFF_3 <= -2.5\nmse = 0.8\nsamples = 24\nvalue = 1.6"] ;
40 -> 48 ;
49 [label="mse = 0.0\nsamples = 2\nvalue = 0.0"] ;
48 -> 49 ;
50 [label="HTGDIFF_4 <= 1.5\nmse = 0.6\nsamples = 22\nvalue = 1.8"] ;
48 -> 50 ;
51 [label="AVGHTGDIFF <= -3.0\nmse = 0.6\nsamples = 20\nvalue = 1.9"] ;
50 -> 51 ;
52 [label="mse = 0.0\nsamples = 1\nvalue = 1.0"] ;
51 -> 52 ;
53 [label="Day <= 4.5\nmse = 0.5\nsamples = 19\nvalue = 1.9"] ;
51 -> 53 ;
54 [label="mse = 0.0\nsamples = 2\nvalue = 3.0"] ;
53 -> 54 ;
55 [label="Year <= 2018.5\nmse = 0.5\nsamples = 17\nvalue = 1.8"] ;
53 -> 55 ;
56 [label="Day <= 28.5\nmse = 0.4\nsamples = 14\nvalue = 2.0"] ;
55 -> 56 ;
57 [label="AVGHTGDIFF <= -0.8\nmse = 0.4\nsamples = 13\nvalue = 1.9"] ;
56 -> 57 ;
58 [label="HST_1 <= 3.5\nmse = 0.2\nsamples = 6\nvalue = 1.7"] ;
57 -> 58 ;
59 [label="mse = 0.0\nsamples = 2\nvalue = 1.0"] ;
58 -> 59 ;
60 [label="HTGDIFF_2 <= -0.5\nmse = 0.1\nsamples = 4\nvalue = 1.9"] ;
58 -> 60 ;
61 [label="mse = 0.0\nsamples = 1\nvalue = 1.0"] ;
60 -> 61 ;
62 [label="mse = 0.0\nsamples = 3\nvalue = 2.0"] ;
60 -> 62 ;
63 [label="HTGDIFF_3 <= 1.0\nmse = 0.5\nsamples = 7\nvalue = 2.1"] ;
57 -> 63 ;
64 [label="AVGHTGDIFF <= -0.6\nmse = 0.4\nsamples = 6\nvalue = 2.2"] ;
63 -> 64 ;
65 [label="mse = 0.0\nsamples = 1\nvalue = 3.0"] ;
64 -> 65 ;
66 [label="Day <= 24.5\nmse = 0.4\nsamples = 5\nvalue = 2.1"] ;
64 -> 66 ;
67 [label="AVGFTHG <= 0.5\nmse = 0.2\nsamples = 4\nvalue = 2.3"] ;
66 -> 67 ;
68 [label="mse = 0.0\nsamples = 1\nvalue = 3.0"] ;
67 -> 68 ;
69 [label="mse = 0.0\nsamples = 3\nvalue = 2.0"] ;
67 -> 69 ;
70 [label="mse = 0.0\nsamples = 1\nvalue = 1.0"] ;
66 -> 70 ;
71 [label="mse = 0.0\nsamples = 1\nvalue = 1.0"] ;
63 -> 71 ;
72 [label="mse = 0.0\nsamples = 1\nvalue = 3.0"] ;
56 -> 72 ;
73 [label="AVGHTGDIFF <= -0.2\nmse = 0.2\nsamples = 3\nvalue = 1.3"] ;
55 -> 73 ;
74 [label="mse = 0.0\nsamples = 1\nvalue = 2.0"] ;
73 -> 74 ;
75 [label="mse = 0.0\nsamples = 2\nvalue = 1.0"] ;
73 -> 75 ;
76 [label="mse = 0.0\nsamples = 2\nvalue = 1.0"] ;
50 -> 76 ;
77 [label="HTGDIFF_6 <= 2.5\nmse = 1.3\nsamples = 73\nvalue = 1.8"] ;
3 -> 77 ;
78 [label="Month <= 6.5\nmse = 1.5\nsamples = 58\nvalue = 2.0"] ;
77 -> 78 ;
79 [label="HTGDIFF_11 <= -0.5\nmse = 1.2\nsamples = 28\nvalue = 2.6"] ;
78 -> 79 ;
80 [label="HTGDIFF_2 <= 0.5\nmse = 0.8\nsamples = 7\nvalue = 3.5"] ;
79 -> 80 ;
81 [label="mse = 0.0\nsamples = 2\nvalue = 5.0"] ;
80 -> 81 ;
82 [label="HTGDIFF_9 <= 2.5\nmse = 0.4\nsamples = 5\nvalue = 3.1"] ;
80 -> 82 ;
83 [label="HTGDIFF_5 <= 2.0\nmse = 0.1\nsamples = 4\nvalue = 2.8"] ;
82 -> 83 ;
84 [label="mse = 0.0\nsamples = 3\nvalue = 3.0"] ;
83 -> 84 ;
85 [label="mse = 0.0\nsamples = 1\nvalue = 2.0"] ;
83 -> 85 ;
86 [label="mse = 0.0\nsamples = 1\nvalue = 4.0"] ;
82 -> 86 ;
87 [label="HTGDIFF_4 <= 1.5\nmse = 0.8\nsamples = 21\nvalue = 2.2"] ;
79 -> 87 ;
88 [label="HTGDIFF_3 <= 2.5\nmse = 0.6\nsamples = 19\nvalue = 2.4"] ;
87 -> 88 ;
89 [label="HTGDIFF_2 <= 3.5\nmse = 0.5\nsamples = 15\nvalue = 2.2"] ;
88 -> 89 ;
90 [label="HTGDIFF_1 <= -2.5\nmse = 0.4\nsamples = 14\nvalue = 2.1"] ;
89 -> 90 ;
91 [label="mse = 0.0\nsamples = 2\nvalue = 3.0"] ;
90 -> 91 ;
92 [label="HTGDIFF_2 <= -2.5\nmse = 0.2\nsamples = 12\nvalue = 1.9"] ;
90 -> 92 ;
93 [label="mse = 0.0\nsamples = 2\nvalue = 1.0"] ;
92 -> 93 ;
94 [label="HTGDIFF_7 <= 2.0\nmse = 0.1\nsamples = 10\nvalue = 2.0"] ;
92 -> 94 ;
95 [label="AVGFTHG <= 2.4\nmse = 0.1\nsamples = 9\nvalue = 1.9"] ;
94 -> 95 ;
96 [label="mse = 0.0\nsamples = 8\nvalue = 2.0"] ;
95 -> 96 ;
97 [label="mse = 0.0\nsamples = 1\nvalue = 1.0"] ;
95 -> 97 ;
98 [label="mse = 0.0\nsamples = 1\nvalue = 3.0"] ;
94 -> 98 ;
99 [label="mse = 0.0\nsamples = 1\nvalue = 4.0"] ;
89 -> 99 ;
100 [label="HTGDIFF_6 <= -2.0\nmse = 0.2\nsamples = 4\nvalue = 3.2"] ;
88 -> 100 ;
101 [label="mse = 0.0\nsamples = 1\nvalue = 4.0"] ;
100 -> 101 ;
102 [label="mse = 0.0\nsamples = 3\nvalue = 3.0"] ;
100 -> 102 ;
103 [label="HTGDIFF_12 <= -0.5\nmse = 0.2\nsamples = 2\nvalue = 0.5"] ;
87 -> 103 ;
104 [label="mse = 0.0\nsamples = 1\nvalue = 0.0"] ;
103 -> 104 ;
105 [label="mse = 0.0\nsamples = 1\nvalue = 1.0"] ;
103 -> 105 ;
106 [label="HTGDIFF_5 <= -0.5\nmse = 1.3\nsamples = 30\nvalue = 1.5"] ;
78 -> 106 ;
107 [label="Month <= 11.5\nmse = 2.1\nsamples = 7\nvalue = 2.5"] ;
106 -> 107 ;
108 [label="Year <= 2018.5\nmse = 0.8\nsamples = 3\nvalue = 3.6"] ;
107 -> 108 ;
109 [label="mse = 0.0\nsamples = 1\nvalue = 5.0"] ;
108 -> 109 ;
110 [label="mse = 0.0\nsamples = 2\nvalue = 3.0"] ;
108 -> 110 ;
111 [label="HTGDIFF_18 <= -0.5\nmse = 0.5\nsamples = 4\nvalue = 1.2"] ;
107 -> 111 ;
112 [label="mse = 0.0\nsamples = 1\nvalue = 2.0"] ;
111 -> 112 ;
113 [label="HTGDIFF_22 <= -0.5\nmse = 0.2\nsamples = 3\nvalue = 0.8"] ;
111 -> 113 ;
114 [label="mse = 0.0\nsamples = 1\nvalue = 0.0"] ;
113 -> 114 ;
115 [label="mse = 0.0\nsamples = 2\nvalue = 1.0"] ;
113 -> 115 ;
116 [label="HTGDIFF_19 <= 0.5\nmse = 0.7\nsamples = 23\nvalue = 1.3"] ;
106 -> 116 ;
117 [label="Day <= 19.5\nmse = 0.5\nsamples = 19\nvalue = 1.1"] ;
116 -> 117 ;
118 [label="HTGDIFF_5 <= 1.5\nmse = 0.4\nsamples = 9\nvalue = 1.6"] ;
117 -> 118 ;
119 [label="AVGHTGDIFF <= 0.3\nmse = 0.2\nsamples = 6\nvalue = 1.3"] ;
118 -> 119 ;
120 [label="HTGDIFF_14 <= -0.5\nmse = 0.2\nsamples = 3\nvalue = 1.8"] ;
119 -> 120 ;
121 [label="mse = 0.0\nsamples = 1\nvalue = 1.0"] ;
120 -> 121 ;
122 [label="mse = 0.0\nsamples = 2\nvalue = 2.0"] ;
120 -> 122 ;
123 [label="mse = 0.0\nsamples = 3\nvalue = 1.0"] ;
119 -> 123 ;
124 [label="HST_1 <= 9.0\nmse = 0.1\nsamples = 3\nvalue = 2.2"] ;
118 -> 124 ;
125 [label="mse = 0.0\nsamples = 2\nvalue = 2.0"] ;
124 -> 125 ;
126 [label="mse = 0.0\nsamples = 1\nvalue = 3.0"] ;
124 -> 126 ;
127 [label="HTGDIFF_5 <= 2.0\nmse = 0.2\nsamples = 10\nvalue = 0.7"] ;
117 -> 127 ;
128 [label="Day <= 21.0\nmse = 0.1\nsamples = 7\nvalue = 0.9"] ;
127 -> 128 ;
129 [label="mse = 0.0\nsamples = 1\nvalue = 0.0"] ;
128 -> 129 ;
130 [label="mse = 0.0\nsamples = 6\nvalue = 1.0"] ;
128 -> 130 ;
131 [label="mse = 0.0\nsamples = 3\nvalue = 0.0"] ;
127 -> 131 ;
132 [label="HTGDIFF_4 <= 2.5\nmse = 0.2\nsamples = 4\nvalue = 2.6"] ;
116 -> 132 ;
133 [label="mse = 0.0\nsamples = 2\nvalue = 3.0"] ;
132 -> 133 ;
134 [label="mse = 0.0\nsamples = 2\nvalue = 2.0"] ;
132 -> 134 ;
135 [label="HTGDIFF_19 <= -0.5\nmse = 0.3\nsamples = 15\nvalue = 1.1"] ;
77 -> 135 ;
136 [label="mse = 0.0\nsamples = 3\nvalue = 2.0"] ;
135 -> 136 ;
137 [label="HTGDIFF_4 <= -2.5\nmse = 0.2\nsamples = 12\nvalue = 1.0"] ;
135 -> 137 ;
138 [label="mse = 0.0\nsamples = 1\nvalue = 2.0"] ;
137 -> 138 ;
139 [label="HTGDIFF_9 <= -3.5\nmse = 0.1\nsamples = 11\nvalue = 0.9"] ;
137 -> 139 ;
140 [label="mse = 0.0\nsamples = 1\nvalue = 0.0"] ;
139 -> 140 ;
141 [label="AVGFTHG <= 2.2\nmse = 0.0\nsamples = 10\nvalue = 1.0"] ;
139 -> 141 ;
142 [label="mse = 0.0\nsamples = 9\nvalue = 1.0"] ;
141 -> 142 ;
143 [label="mse = 0.0\nsamples = 1\nvalue = 0.0"] ;
141 -> 143 ;
144 [label="HTGDIFF_2 <= 0.5\nmse = 0.2\nsamples = 9\nvalue = 0.5"] ;
2 -> 144 ;
145 [label="mse = 0.0\nsamples = 4\nvalue = 0.0"] ;
144 -> 145 ;
146 [label="HTGDIFF_20 <= -1.0\nmse = 0.2\nsamples = 5\nvalue = 0.8"] ;
144 -> 146 ;
147 [label="mse = 0.0\nsamples = 1\nvalue = 0.0"] ;
146 -> 147 ;
148 [label="mse = 0.0\nsamples = 4\nvalue = 1.0"] ;
146 -> 148 ;
149 [label="mse = 0.0\nsamples = 1\nvalue = 5.0"] ;
1 -> 149 ;
150 [label="HTGDIFF_12 <= -0.5\nmse = 3.7\nsamples = 48\nvalue = 2.9"] ;
0 -> 150 [labeldistance=2.5, labelangle=-45, headlabel="False"] ;
151 [label="mse = 0.0\nsamples = 2\nvalue = 8.0"] ;
150 -> 151 ;
152 [label="AVGFTHG <= 2.9\nmse = 2.7\nsamples = 46\nvalue = 2.7"] ;
150 -> 152 ;
153 [label="HST_1 <= 5.5\nmse = 1.9\nsamples = 21\nvalue = 1.9"] ;
152 -> 153 ;
154 [label="HTGDIFF_8 <= -1.5\nmse = 1.3\nsamples = 12\nvalue = 1.1"] ;
153 -> 154 ;
155 [label="mse = 0.0\nsamples = 1\nvalue = 5.0"] ;
154 -> 155 ;
156 [label="Day <= 23.5\nmse = 0.3\nsamples = 11\nvalue = 0.8"] ;
154 -> 156 ;
157 [label="Day <= 5.0\nmse = 0.2\nsamples = 5\nvalue = 0.2"] ;
156 -> 157 ;
158 [label="mse = 0.0\nsamples = 1\nvalue = 1.0"] ;
157 -> 158 ;
159 [label="mse = 0.0\nsamples = 4\nvalue = 0.0"] ;
157 -> 159 ;
160 [label="HTGDIFF_3 <= 1.5\nmse = 0.1\nsamples = 6\nvalue = 1.1"] ;
156 -> 160 ;
161 [label="mse = 0.0\nsamples = 5\nvalue = 1.0"] ;
160 -> 161 ;
162 [label="mse = 0.0\nsamples = 1\nvalue = 2.0"] ;
160 -> 162 ;
163 [label="Month <= 11.5\nmse = 1.1\nsamples = 9\nvalue = 2.7"] ;
153 -> 163 ;
164 [label="HTGDIFF_2 <= 3.5\nmse = 0.4\nsamples = 6\nvalue = 3.3"] ;
163 -> 164 ;
165 [label="AVGFTHG <= 2.4\nmse = 0.2\nsamples = 5\nvalue = 3.4"] ;
164 -> 165 ;
166 [label="mse = 0.0\nsamples = 3\nvalue = 3.0"] ;
165 -> 166 ;
167 [label="mse = 0.0\nsamples = 2\nvalue = 4.0"] ;
165 -> 167 ;
168 [label="mse = 0.0\nsamples = 1\nvalue = 2.0"] ;
164 -> 168 ;
169 [label="HTGDIFF_3 <= 3.0\nmse = 0.2\nsamples = 3\nvalue = 1.2"] ;
163 -> 169 ;
170 [label="mse = 0.0\nsamples = 2\nvalue = 1.0"] ;
169 -> 170 ;
171 [label="mse = 0.0\nsamples = 1\nvalue = 2.0"] ;
169 -> 171 ;
172 [label="HTGDIFF_2 <= 0.5\nmse = 2.5\nsamples = 25\nvalue = 3.3"] ;
152 -> 172 ;
173 [label="Month <= 8.5\nmse = 1.3\nsamples = 9\nvalue = 2.4"] ;
172 -> 173 ;
174 [label="HTGDIFF_14 <= 0.5\nmse = 0.2\nsamples = 2\nvalue = 4.5"] ;
173 -> 174 ;
175 [label="mse = 0.0\nsamples = 1\nvalue = 4.0"] ;
174 -> 175 ;
176 [label="mse = 0.0\nsamples = 1\nvalue = 5.0"] ;
174 -> 176 ;
177 [label="HST_1 <= 3.0\nmse = 0.7\nsamples = 7\nvalue = 2.1"] ;
173 -> 177 ;
178 [label="AVGHTGDIFF <= 2.5\nmse = 0.2\nsamples = 2\nvalue = 0.5"] ;
177 -> 178 ;
179 [label="mse = 0.0\nsamples = 1\nvalue = 1.0"] ;
178 -> 179 ;
180 [label="mse = 0.0\nsamples = 1\nvalue = 0.0"] ;
178 -> 180 ;
181 [label="Day <= 18.5\nmse = 0.2\nsamples = 5\nvalue = 2.4"] ;
177 -> 181 ;
182 [label="AVGHTGDIFF <= 1.6\nmse = 0.2\nsamples = 3\nvalue = 2.7"] ;
181 -> 182 ;
183 [label="mse = 0.0\nsamples = 1\nvalue = 2.0"] ;
182 -> 183 ;
184 [label="mse = 0.0\nsamples = 2\nvalue = 3.0"] ;
182 -> 184 ;
185 [label="mse = 0.0\nsamples = 2\nvalue = 2.0"] ;
181 -> 185 ;
186 [label="HTGDIFF_11 <= 2.5\nmse = 2.4\nsamples = 16\nvalue = 3.8"] ;
172 -> 186 ;
187 [label="AVGHTGDIFF <= 2.8\nmse = 1.6\nsamples = 12\nvalue = 4.4"] ;
186 -> 187 ;
188 [label="HTGDIFF_1 <= 1.5\nmse = 1.2\nsamples = 11\nvalue = 4.0"] ;
187 -> 188 ;
189 [label="HTGDIFF_4 <= 1.5\nmse = 0.7\nsamples = 5\nvalue = 4.8"] ;
188 -> 189 ;
190 [label="Day <= 26.5\nmse = 0.3\nsamples = 4\nvalue = 5.0"] ;
189 -> 190 ;
191 [label="AVGHTGDIFF <= 2.0\nmse = 0.1\nsamples = 3\nvalue = 5.2"] ;
190 -> 191 ;
192 [label="mse = 0.0\nsamples = 2\nvalue = 5.0"] ;
191 -> 192 ;
193 [label="mse = 0.0\nsamples = 1\nvalue = 6.0"] ;
191 -> 193 ;
194 [label="mse = 0.0\nsamples = 1\nvalue = 4.0"] ;
190 -> 194 ;
195 [label="mse = 0.0\nsamples = 1\nvalue = 3.0"] ;
189 -> 195 ;
196 [label="HST_1 <= 9.0\nmse = 0.4\nsamples = 6\nvalue = 3.1"] ;
188 -> 196 ;
197 [label="HTGDIFF_1 <= 2.5\nmse = 0.2\nsamples = 4\nvalue = 2.8"] ;
196 -> 197 ;
198 [label="mse = 0.0\nsamples = 1\nvalue = 2.0"] ;
197 -> 198 ;
199 [label="mse = 0.0\nsamples = 3\nvalue = 3.0"] ;
197 -> 199 ;
200 [label="mse = 0.0\nsamples = 2\nvalue = 4.0"] ;
196 -> 200 ;
201 [label="mse = 0.0\nsamples = 1\nvalue = 6.0"] ;
187 -> 201 ;
202 [label="HTGDIFF_18 <= 3.5\nmse = 0.3\nsamples = 4\nvalue = 2.0"] ;
186 -> 202 ;
203 [label="Month <= 2.5\nmse = 0.2\nsamples = 3\nvalue = 2.2"] ;
202 -> 203 ;
204 [label="mse = 0.0\nsamples = 1\nvalue = 3.0"] ;
203 -> 204 ;
205 [label="mse = 0.0\nsamples = 2\nvalue = 2.0"] ;
203 -> 205 ;
206 [label="mse = 0.0\nsamples = 1\nvalue = 1.0"] ;
202 -> 206 ;
}