digraph Tree {
node [shape=box, style="rounded", color="black", fontname=helvetica] ;
edge [fontname=helvetica] ;
0 [label="AVGFTHG <= 3.0\nmse = 1.8\nsamples = 260\nvalue = 1.8"] ;
1 [label="AVGFTHG <= 1.9\nmse = 1.6\nsamples = 245\nvalue = 1.7"] ;
0 -> 1 [labeldistance=2.5, labelangle=45, headlabel="True"] ;
2 [label="FTHG_1 <= 1.5\nmse = 1.3\nsamples = 183\nvalue = 1.6"] ;
1 -> 2 ;
3 [label="Day <= 22.5\nmse = 1.0\nsamples = 106\nvalue = 1.3"] ;
2 -> 3 ;
4 [label="HST_1 <= 2.5\nmse = 0.9\nsamples = 76\nvalue = 1.2"] ;
3 -> 4 ;
5 [label="HTGDIFF_3 <= -3.5\nmse = 0.7\nsamples = 23\nvalue = 0.7"] ;
4 -> 5 ;
6 [label="mse = 0.0\nsamples = 1\nvalue = 2.0"] ;
5 -> 6 ;
7 [label="AVGHTGDIFF <= -0.2\nmse = 0.6\nsamples = 22\nvalue = 0.6"] ;
5 -> 7 ;
8 [label="HTGDIFF_3 <= 2.0\nmse = 0.1\nsamples = 7\nvalue = 0.1"] ;
7 -> 8 ;
9 [label="mse = 0.0\nsamples = 6\nvalue = 0.0"] ;
8 -> 9 ;
10 [label="mse = 0.0\nsamples = 1\nvalue = 1.0"] ;
8 -> 10 ;
11 [label="HST_1 <= 0.5\nmse = 0.7\nsamples = 15\nvalue = 0.8"] ;
7 -> 11 ;
12 [label="Month <= 5.5\nmse = 0.5\nsamples = 10\nvalue = 0.5"] ;
11 -> 12 ;
13 [label="Day <= 8.5\nmse = 0.5\nsamples = 7\nvalue = 0.7"] ;
12 -> 13 ;
14 [label="mse = 0.0\nsamples = 1\nvalue = 0.0"] ;
13 -> 14 ;
15 [label="Month <= 3.5\nmse = 0.5\nsamples = 6\nvalue = 0.8"] ;
13 -> 15 ;
16 [label="Month <= 2.0\nmse = 0.2\nsamples = 4\nvalue = 0.4"] ;
15 -> 16 ;
17 [label="Day <= 10.5\nmse = 0.2\nsamples = 3\nvalue = 0.8"] ;
16 -> 17 ;
18 [label="mse = 0.2\nsamples = 2\nvalue = 0.7"] ;
17 -> 18 ;
19 [label="mse = 0.0\nsamples = 1\nvalue = 1.0"] ;
17 -> 19 ;
20 [label="mse = 0.0\nsamples = 1\nvalue = 0.0"] ;
16 -> 20 ;
21 [label="Month <= 4.5\nmse = 0.2\nsamples = 2\nvalue = 1.5"] ;
15 -> 21 ;
22 [label="mse = 0.0\nsamples = 1\nvalue = 2.0"] ;
21 -> 22 ;
23 [label="mse = 0.0\nsamples = 1\nvalue = 1.0"] ;
21 -> 23 ;
24 [label="mse = 0.0\nsamples = 3\nvalue = 0.0"] ;
12 -> 24 ;
25 [label="FTHG_1 <= 0.5\nmse = 0.8\nsamples = 5\nvalue = 1.3"] ;
11 -> 25 ;
26 [label="mse = 0.0\nsamples = 1\nvalue = 3.0"] ;
25 -> 26 ;
27 [label="HST_8 <= 2.0\nmse = 0.3\nsamples = 4\nvalue = 1.0"] ;
25 -> 27 ;
28 [label="HST_1 <= 1.5\nmse = 0.2\nsamples = 3\nvalue = 0.8"] ;
27 -> 28 ;
29 [label="mse = 0.0\nsamples = 1\nvalue = 0.0"] ;
28 -> 29 ;
30 [label="mse = 0.0\nsamples = 2\nvalue = 1.0"] ;
28 -> 30 ;
31 [label="mse = 0.0\nsamples = 1\nvalue = 2.0"] ;
27 -> 31 ;
32 [label="Month <= 3.5\nmse = 0.8\nsamples = 53\nvalue = 1.4"] ;
4 -> 32 ;
33 [label="FTHG_6 <= 2.5\nmse = 0.4\nsamples = 12\nvalue = 2.0"] ;
32 -> 33 ;
34 [label="HST_7 <= 8.0\nmse = 0.3\nsamples = 11\nvalue = 2.2"] ;
33 -> 34 ;
35 [label="HTGDIFF_6 <= -1.5\nmse = 0.1\nsamples = 9\nvalue = 2.0"] ;
34 -> 35 ;
36 [label="mse = 0.0\nsamples = 1\nvalue = 1.0"] ;
35 -> 36 ;
37 [label="Year <= 2018.5\nmse = 0.1\nsamples = 8\nvalue = 2.1"] ;
35 -> 37 ;
38 [label="Month <= 2.5\nmse = 0.2\nsamples = 2\nvalue = 2.5"] ;
37 -> 38 ;
39 [label="mse = 0.0\nsamples = 1\nvalue = 2.0"] ;
38 -> 39 ;
40 [label="mse = 0.0\nsamples = 1\nvalue = 3.0"] ;
38 -> 40 ;
41 [label="mse = 0.0\nsamples = 6\nvalue = 2.0"] ;
37 -> 41 ;
42 [label="mse = 0.0\nsamples = 2\nvalue = 3.0"] ;
34 -> 42 ;
43 [label="mse = 0.0\nsamples = 1\nvalue = 1.0"] ;
33 -> 43 ;
44 [label="FTHG_9 <= 1.5\nmse = 0.7\nsamples = 41\nvalue = 1.1"] ;
32 -> 44 ;
45 [label="HTGDIFF_4 <= -1.5\nmse = 0.8\nsamples = 31\nvalue = 1.3"] ;
44 -> 45 ;
46 [label="HTGDIFF_6 <= -0.5\nmse = 0.6\nsamples = 4\nvalue = 2.4"] ;
45 -> 46 ;
47 [label="mse = 0.0\nsamples = 3\nvalue = 2.0"] ;
46 -> 47 ;
48 [label="mse = 0.0\nsamples = 1\nvalue = 4.0"] ;
46 -> 48 ;
49 [label="HTGDIFF_6 <= -1.5\nmse = 0.6\nsamples = 27\nvalue = 1.2"] ;
45 -> 49 ;
50 [label="mse = 0.0\nsamples = 4\nvalue = 0.0"] ;
49 -> 50 ;
51 [label="HST_8 <= 5.0\nmse = 0.5\nsamples = 23\nvalue = 1.4"] ;
49 -> 51 ;
52 [label="Day <= 9.0\nmse = 0.3\nsamples = 20\nvalue = 1.2"] ;
51 -> 52 ;
53 [label="mse = 0.0\nsamples = 2\nvalue = 2.0"] ;
52 -> 53 ;
54 [label="HTGDIFF_3 <= -1.5\nmse = 0.3\nsamples = 18\nvalue = 1.1"] ;
52 -> 54 ;
55 [label="HTGDIFF_4 <= 1.5\nmse = 0.2\nsamples = 2\nvalue = 0.5"] ;
54 -> 55 ;
56 [label="mse = 0.0\nsamples = 1\nvalue = 0.0"] ;
55 -> 56 ;
57 [label="mse = 0.0\nsamples = 1\nvalue = 1.0"] ;
55 -> 57 ;
58 [label="HTGDIFF_2 <= -2.5\nmse = 0.2\nsamples = 16\nvalue = 1.2"] ;
54 -> 58 ;
59 [label="mse = 0.0\nsamples = 1\nvalue = 2.0"] ;
58 -> 59 ;
60 [label="HST_3 <= 4.0\nmse = 0.2\nsamples = 15\nvalue = 1.2"] ;
58 -> 60 ;
61 [label="HTGDIFF_1 <= -1.5\nmse = 0.3\nsamples = 9\nvalue = 1.3"] ;
60 -> 61 ;
62 [label="mse = 0.0\nsamples = 3\nvalue = 1.0"] ;
61 -> 62 ;
63 [label="FTHG_2 <= 2.0\nmse = 0.5\nsamples = 6\nvalue = 1.5"] ;
61 -> 63 ;
64 [label="Day <= 18.0\nmse = 0.6\nsamples = 4\nvalue = 1.7"] ;
63 -> 64 ;
65 [label="mse = 0.0\nsamples = 2\nvalue = 2.0"] ;
64 -> 65 ;
66 [label="HST_2 <= 2.0\nmse = 1.0\nsamples = 2\nvalue = 1.0"] ;
64 -> 66 ;
67 [label="mse = 0.0\nsamples = 1\nvalue = 0.0"] ;
66 -> 67 ;
68 [label="mse = 0.0\nsamples = 1\nvalue = 2.0"] ;
66 -> 68 ;
69 [label="mse = 0.0\nsamples = 2\nvalue = 1.0"] ;
63 -> 69 ;
70 [label="mse = 0.0\nsamples = 6\nvalue = 1.0"] ;
60 -> 70 ;
71 [label="HTGDIFF_2 <= 0.0\nmse = 0.2\nsamples = 3\nvalue = 2.4"] ;
51 -> 71 ;
72 [label="mse = 0.0\nsamples = 2\nvalue = 2.0"] ;
71 -> 72 ;
73 [label="mse = 0.0\nsamples = 1\nvalue = 3.0"] ;
71 -> 73 ;
74 [label="AVGFTHG <= 1.2\nmse = 0.2\nsamples = 10\nvalue = 0.5"] ;
44 -> 74 ;
75 [label="mse = 0.0\nsamples = 2\nvalue = 0.0"] ;
74 -> 75 ;
76 [label="HST_5 <= 5.5\nmse = 0.2\nsamples = 8\nvalue = 0.8"] ;
74 -> 76 ;
77 [label="mse = 0.0\nsamples = 6\nvalue = 1.0"] ;
76 -> 77 ;
78 [label="mse = 0.0\nsamples = 2\nvalue = 0.0"] ;
76 -> 78 ;
79 [label="HTGDIFF_6 <= -1.5\nmse = 1.3\nsamples = 30\nvalue = 1.8"] ;
3 -> 79 ;
80 [label="HTGDIFF_8 <= -1.5\nmse = 2.0\nsamples = 6\nvalue = 3.0"] ;
79 -> 80 ;
81 [label="mse = 0.0\nsamples = 1\nvalue = 1.0"] ;
80 -> 81 ;
82 [label="HST_2 <= 3.0\nmse = 0.9\nsamples = 5\nvalue = 3.7"] ;
80 -> 82 ;
83 [label="mse = 0.0\nsamples = 1\nvalue = 5.0"] ;
82 -> 83 ;
84 [label="mse = 0.0\nsamples = 4\nvalue = 3.0"] ;
82 -> 84 ;
85 [label="FTHG_9 <= 0.5\nmse = 0.7\nsamples = 24\nvalue = 1.5"] ;
79 -> 85 ;
86 [label="HST_3 <= 5.5\nmse = 0.7\nsamples = 19\nvalue = 1.8"] ;
85 -> 86 ;
87 [label="HTGDIFF_3 <= -0.5\nmse = 0.6\nsamples = 12\nvalue = 2.1"] ;
86 -> 87 ;
88 [label="mse = 0.0\nsamples = 1\nvalue = 4.0"] ;
87 -> 88 ;
89 [label="Month <= 9.5\nmse = 0.4\nsamples = 11\nvalue = 1.9"] ;
87 -> 89 ;
90 [label="Day <= 26.5\nmse = 0.2\nsamples = 7\nvalue = 1.6"] ;
89 -> 90 ;
91 [label="HST_1 <= 1.5\nmse = 0.2\nsamples = 3\nvalue = 1.2"] ;
90 -> 91 ;
92 [label="mse = 0.0\nsamples = 1\nvalue = 2.0"] ;
91 -> 92 ;
93 [label="mse = 0.0\nsamples = 2\nvalue = 1.0"] ;
91 -> 93 ;
94 [label="Month <= 8.5\nmse = 0.1\nsamples = 4\nvalue = 1.9"] ;
90 -> 94 ;
95 [label="mse = 0.0\nsamples = 3\nvalue = 2.0"] ;
94 -> 95 ;
96 [label="mse = 0.0\nsamples = 1\nvalue = 1.0"] ;
94 -> 96 ;
97 [label="HST_1 <= 4.5\nmse = 0.2\nsamples = 4\nvalue = 2.6"] ;
89 -> 97 ;
98 [label="mse = 0.0\nsamples = 2\nvalue = 3.0"] ;
97 -> 98 ;
99 [label="mse = 0.0\nsamples = 2\nvalue = 2.0"] ;
97 -> 99 ;
100 [label="HST_4 <= 3.5\nmse = 0.1\nsamples = 7\nvalue = 1.1"] ;
86 -> 100 ;
101 [label="mse = 0.0\nsamples = 1\nvalue = 2.0"] ;
100 -> 101 ;
102 [label="mse = 0.0\nsamples = 6\nvalue = 1.0"] ;
100 -> 102 ;
103 [label="FTHG_2 <= 2.5\nmse = 0.1\nsamples = 5\nvalue = 0.8"] ;
85 -> 103 ;
104 [label="mse = 0.0\nsamples = 4\nvalue = 1.0"] ;
103 -> 104 ;
105 [label="mse = 0.0\nsamples = 1\nvalue = 0.0"] ;
103 -> 105 ;
106 [label="HST_9 <= 6.5\nmse = 1.4\nsamples = 77\nvalue = 1.9"] ;
2 -> 106 ;
107 [label="HST_2 <= 1.5\nmse = 1.4\nsamples = 71\nvalue = 1.9"] ;
106 -> 107 ;
108 [label="Year <= 2018.5\nmse = 1.2\nsamples = 8\nvalue = 1.1"] ;
107 -> 108 ;
109 [label="FTHG_1 <= 2.5\nmse = 0.6\nsamples = 4\nvalue = 0.3"] ;
108 -> 109 ;
110 [label="mse = 0.0\nsamples = 2\nvalue = 0.0"] ;
109 -> 110 ;
111 [label="HST_2 <= 0.5\nmse = 1.0\nsamples = 2\nvalue = 1.0"] ;
109 -> 111 ;
112 [label="mse = 0.0\nsamples = 1\nvalue = 2.0"] ;
111 -> 112 ;
113 [label="mse = 0.0\nsamples = 1\nvalue = 0.0"] ;
111 -> 113 ;
114 [label="Day <= 23.0\nmse = 0.8\nsamples = 4\nvalue = 1.8"] ;
108 -> 114 ;
115 [label="HST_1 <= 5.0\nmse = 0.2\nsamples = 3\nvalue = 2.2"] ;
114 -> 115 ;
116 [label="mse = 0.0\nsamples = 2\nvalue = 2.0"] ;
115 -> 116 ;
117 [label="mse = 0.0\nsamples = 1\nvalue = 3.0"] ;
115 -> 117 ;
118 [label="mse = 0.0\nsamples = 1\nvalue = 0.0"] ;
114 -> 118 ;
119 [label="HTGDIFF_3 <= 5.0\nmse = 1.3\nsamples = 63\nvalue = 2.0"] ;
107 -> 119 ;
120 [label="HTGDIFF_5 <= -0.5\nmse = 1.2\nsamples = 60\nvalue = 2.1"] ;
119 -> 120 ;
121 [label="Day <= 13.0\nmse = 0.9\nsamples = 13\nvalue = 1.6"] ;
120 -> 121 ;
122 [label="FTHG_2 <= 1.5\nmse = 0.2\nsamples = 4\nvalue = 2.3"] ;
121 -> 122 ;
123 [label="mse = 0.0\nsamples = 2\nvalue = 2.0"] ;
122 -> 123 ;
124 [label="mse = 0.0\nsamples = 2\nvalue = 3.0"] ;
122 -> 124 ;
125 [label="HST_4 <= 6.5\nmse = 0.6\nsamples = 9\nvalue = 1.0"] ;
121 -> 125 ;
126 [label="Day <= 17.0\nmse = 0.2\nsamples = 7\nvalue = 0.7"] ;
125 -> 126 ;
127 [label="mse = 0.0\nsamples = 2\nvalue = 0.0"] ;
126 -> 127 ;
128 [label="mse = 0.0\nsamples = 5\nvalue = 1.0"] ;
126 -> 128 ;
129 [label="HTGDIFF_5 <= -1.5\nmse = 0.2\nsamples = 2\nvalue = 2.5"] ;
125 -> 129 ;
130 [label="mse = 0.0\nsamples = 1\nvalue = 2.0"] ;
129 -> 130 ;
131 [label="mse = 0.0\nsamples = 1\nvalue = 3.0"] ;
129 -> 131 ;
132 [label="HST_2 <= 8.5\nmse = 1.2\nsamples = 47\nvalue = 2.3"] ;
120 -> 132 ;
133 [label="HST_2 <= 5.5\nmse = 1.1\nsamples = 43\nvalue = 2.4"] ;
132 -> 133 ;
134 [label="HST_2 <= 4.5\nmse = 1.3\nsamples = 25\nvalue = 2.1"] ;
133 -> 134 ;
135 [label="HTGDIFF_2 <= 0.5\nmse = 1.1\nsamples = 20\nvalue = 2.3"] ;
134 -> 135 ;
136 [label="HST_7 <= 4.5\nmse = 0.8\nsamples = 16\nvalue = 2.0"] ;
135 -> 136 ;
137 [label="FTHG_6 <= 2.0\nmse = 0.8\nsamples = 9\nvalue = 1.6"] ;
136 -> 137 ;
138 [label="HTGDIFF_2 <= -1.5\nmse = 0.6\nsamples = 7\nvalue = 1.8"] ;
137 -> 138 ;
139 [label="HTGDIFF_6 <= -1.0\nmse = 0.2\nsamples = 2\nvalue = 0.5"] ;
138 -> 139 ;
140 [label="mse = 0.0\nsamples = 1\nvalue = 1.0"] ;
139 -> 140 ;
141 [label="mse = 0.0\nsamples = 1\nvalue = 0.0"] ;
139 -> 141 ;
142 [label="Day <= 27.0\nmse = 0.3\nsamples = 5\nvalue = 2.1"] ;
138 -> 142 ;
143 [label="AVGFTHG <= 0.6\nmse = 0.1\nsamples = 4\nvalue = 1.9"] ;
142 -> 143 ;
144 [label="mse = 0.0\nsamples = 3\nvalue = 2.0"] ;
143 -> 144 ;
145 [label="mse = 0.0\nsamples = 1\nvalue = 1.0"] ;
143 -> 145 ;
146 [label="mse = 0.0\nsamples = 1\nvalue = 3.0"] ;
142 -> 146 ;
147 [label="HST_3 <= 3.0\nmse = 0.2\nsamples = 2\nvalue = 0.7"] ;
137 -> 147 ;
148 [label="mse = 0.0\nsamples = 1\nvalue = 1.0"] ;
147 -> 148 ;
149 [label="mse = 0.0\nsamples = 1\nvalue = 0.0"] ;
147 -> 149 ;
150 [label="HST_8 <= 3.5\nmse = 0.2\nsamples = 7\nvalue = 2.6"] ;
136 -> 150 ;
151 [label="mse = 0.0\nsamples = 3\nvalue = 3.0"] ;
150 -> 151 ;
152 [label="FTHG_2 <= 0.5\nmse = 0.2\nsamples = 4\nvalue = 2.2"] ;
150 -> 152 ;
153 [label="mse = 0.0\nsamples = 3\nvalue = 2.0"] ;
152 -> 153 ;
154 [label="mse = 0.0\nsamples = 1\nvalue = 3.0"] ;
152 -> 154 ;
155 [label="HST_5 <= 8.0\nmse = 0.6\nsamples = 4\nvalue = 3.6"] ;
135 -> 155 ;
156 [label="mse = 0.0\nsamples = 3\nvalue = 4.0"] ;
155 -> 156 ;
157 [label="mse = 0.0\nsamples = 1\nvalue = 2.0"] ;
155 -> 157 ;
158 [label="HST_3 <= 3.5\nmse = 0.5\nsamples = 5\nvalue = 0.8"] ;
134 -> 158 ;
159 [label="mse = 0.0\nsamples = 2\nvalue = 0.0"] ;
158 -> 159 ;
160 [label="HTGDIFF_1 <= -0.5\nmse = 0.2\nsamples = 3\nvalue = 1.2"] ;
158 -> 160 ;
161 [label="mse = 0.0\nsamples = 2\nvalue = 1.0"] ;
160 -> 161 ;
162 [label="mse = 0.0\nsamples = 1\nvalue = 2.0"] ;
160 -> 162 ;
163 [label="FTHG_6 <= 2.5\nmse = 0.7\nsamples = 18\nvalue = 2.7"] ;
133 -> 163 ;
164 [label="HST_2 <= 6.5\nmse = 0.6\nsamples = 15\nvalue = 2.5"] ;
163 -> 164 ;
165 [label="HST_7 <= 2.0\nmse = 0.8\nsamples = 3\nvalue = 1.5"] ;
164 -> 165 ;
166 [label="mse = 0.0\nsamples = 1\nvalue = 0.0"] ;
165 -> 166 ;
167 [label="mse = 0.0\nsamples = 2\nvalue = 2.0"] ;
165 -> 167 ;
168 [label="HST_5 <= 5.5\nmse = 0.3\nsamples = 12\nvalue = 2.7"] ;
164 -> 168 ;
169 [label="FTHG_2 <= 1.5\nmse = 0.2\nsamples = 9\nvalue = 2.8"] ;
168 -> 169 ;
170 [label="HST_8 <= 2.0\nmse = 0.2\nsamples = 2\nvalue = 2.5"] ;
169 -> 170 ;
171 [label="mse = 0.0\nsamples = 1\nvalue = 2.0"] ;
170 -> 171 ;
172 [label="mse = 0.0\nsamples = 1\nvalue = 3.0"] ;
170 -> 172 ;
173 [label="FTHG_2 <= 2.5\nmse = 0.2\nsamples = 7\nvalue = 3.0"] ;
169 -> 173 ;
174 [label="mse = 0.0\nsamples = 1\nvalue = 4.0"] ;
173 -> 174 ;
175 [label="FTHG_2 <= 5.0\nmse = 0.1\nsamples = 6\nvalue = 2.9"] ;
173 -> 175 ;
176 [label="mse = 0.0\nsamples = 5\nvalue = 3.0"] ;
175 -> 176 ;
177 [label="mse = 0.0\nsamples = 1\nvalue = 2.0"] ;
175 -> 177 ;
178 [label="mse = 0.0\nsamples = 3\nvalue = 2.0"] ;
168 -> 178 ;
179 [label="Month <= 11.0\nmse = 0.2\nsamples = 3\nvalue = 3.7"] ;
163 -> 179 ;
180 [label="mse = 0.0\nsamples = 2\nvalue = 4.0"] ;
179 -> 180 ;
181 [label="mse = 0.0\nsamples = 1\nvalue = 3.0"] ;
179 -> 181 ;
182 [label="HST_4 <= 5.5\nmse = 0.8\nsamples = 4\nvalue = 1.2"] ;
132 -> 182 ;
183 [label="mse = 0.0\nsamples = 2\nvalue = 2.0"] ;
182 -> 183 ;
184 [label="HST_2 <= 9.5\nmse = 0.2\nsamples = 2\nvalue = 0.3"] ;
182 -> 184 ;
185 [label="mse = 0.0\nsamples = 1\nvalue = 1.0"] ;
184 -> 185 ;
186 [label="mse = 0.0\nsamples = 1\nvalue = 0.0"] ;
184 -> 186 ;
187 [label="HTGDIFF_1 <= 0.5\nmse = 1.0\nsamples = 3\nvalue = 0.8"] ;
119 -> 187 ;
188 [label="mse = 0.0\nsamples = 1\nvalue = 2.0"] ;
187 -> 188 ;
189 [label="mse = 0.0\nsamples = 2\nvalue = 0.0"] ;
187 -> 189 ;
190 [label="HTGDIFF_4 <= -0.5\nmse = 0.7\nsamples = 6\nvalue = 0.9"] ;
106 -> 190 ;
191 [label="HST_8 <= 6.5\nmse = 0.2\nsamples = 4\nvalue = 1.5"] ;
190 -> 191 ;
192 [label="mse = 0.0\nsamples = 2\nvalue = 2.0"] ;
191 -> 192 ;
193 [label="mse = 0.0\nsamples = 2\nvalue = 1.0"] ;
191 -> 193 ;
194 [label="mse = 0.0\nsamples = 2\nvalue = 0.0"] ;
190 -> 194 ;
195 [label="HST_8 <= 1.5\nmse = 2.2\nsamples = 62\nvalue = 2.1"] ;
1 -> 195 ;
196 [label="mse = 0.0\nsamples = 1\nvalue = 5.0"] ;
195 -> 196 ;
197 [label="Month <= 10.5\nmse = 2.0\nsamples = 61\nvalue = 2.1"] ;
195 -> 197 ;
198 [label="Month <= 5.5\nmse = 1.7\nsamples = 53\nvalue = 1.9"] ;
197 -> 198 ;
199 [label="HTGDIFF_2 <= 0.5\nmse = 2.6\nsamples = 22\nvalue = 2.5"] ;
198 -> 199 ;
200 [label="HST_3 <= 9.5\nmse = 1.9\nsamples = 9\nvalue = 3.9"] ;
199 -> 200 ;
201 [label="FTHG_6 <= 0.5\nmse = 0.7\nsamples = 5\nvalue = 5.0"] ;
200 -> 201 ;
202 [label="mse = 0.0\nsamples = 1\nvalue = 4.0"] ;
201 -> 202 ;
203 [label="HTGDIFF_2 <= -0.5\nmse = 0.2\nsamples = 4\nvalue = 5.5"] ;
201 -> 203 ;
204 [label="mse = 0.0\nsamples = 2\nvalue = 6.0"] ;
203 -> 204 ;
205 [label="mse = 0.0\nsamples = 2\nvalue = 5.0"] ;
203 -> 205 ;
206 [label="HST_5 <= 6.0\nmse = 0.2\nsamples = 4\nvalue = 2.6"] ;
200 -> 206 ;
207 [label="mse = 0.0\nsamples = 2\nvalue = 2.0"] ;
206 -> 207 ;
208 [label="mse = 0.0\nsamples = 2\nvalue = 3.0"] ;
206 -> 208 ;
209 [label="AVGFTHG <= 2.5\nmse = 1.6\nsamples = 13\nvalue = 1.8"] ;
199 -> 209 ;
210 [label="HST_7 <= 7.5\nmse = 0.1\nsamples = 7\nvalue = 1.0"] ;
209 -> 210 ;
211 [label="HTGDIFF_2 <= 3.5\nmse = 0.1\nsamples = 6\nvalue = 1.1"] ;
210 -> 211 ;
212 [label="mse = 0.0\nsamples = 5\nvalue = 1.0"] ;
211 -> 212 ;
213 [label="mse = 0.0\nsamples = 1\nvalue = 2.0"] ;
211 -> 213 ;
214 [label="mse = 0.0\nsamples = 1\nvalue = 0.0"] ;
210 -> 214 ;
215 [label="HST_5 <= 4.5\nmse = 1.5\nsamples = 6\nvalue = 2.8"] ;
209 -> 215 ;
216 [label="mse = 0.0\nsamples = 1\nvalue = 5.0"] ;
215 -> 216 ;
217 [label="HST_10 <= 5.0\nmse = 0.6\nsamples = 5\nvalue = 2.4"] ;
215 -> 217 ;
218 [label="mse = 0.0\nsamples = 3\nvalue = 3.0"] ;
217 -> 218 ;
219 [label="HTGDIFF_8 <= 0.5\nmse = 0.2\nsamples = 2\nvalue = 1.5"] ;
217 -> 219 ;
220 [label="mse = 0.0\nsamples = 1\nvalue = 1.0"] ;
219 -> 220 ;
221 [label="mse = 0.0\nsamples = 1\nvalue = 2.0"] ;
219 -> 221 ;
222 [label="AVGFTHG <= 2.3\nmse = 0.8\nsamples = 31\nvalue = 1.5"] ;
198 -> 222 ;
223 [label="FTHG_1 <= 1.5\nmse = 0.7\nsamples = 17\nvalue = 1.8"] ;
222 -> 223 ;
224 [label="HST_2 <= 12.0\nmse = 0.4\nsamples = 10\nvalue = 2.2"] ;
223 -> 224 ;
225 [label="HTGDIFF_6 <= -2.0\nmse = 0.2\nsamples = 9\nvalue = 2.3"] ;
224 -> 225 ;
226 [label="mse = 0.0\nsamples = 2\nvalue = 3.0"] ;
225 -> 226 ;
227 [label="HST_10 <= 8.5\nmse = 0.1\nsamples = 7\nvalue = 2.1"] ;
225 -> 227 ;
228 [label="mse = 0.0\nsamples = 6\nvalue = 2.0"] ;
227 -> 228 ;
229 [label="mse = 0.0\nsamples = 1\nvalue = 3.0"] ;
227 -> 229 ;
230 [label="mse = 0.0\nsamples = 1\nvalue = 0.0"] ;
224 -> 230 ;
231 [label="Month <= 9.5\nmse = 0.7\nsamples = 7\nvalue = 1.1"] ;
223 -> 231 ;
232 [label="HST_7 <= 8.5\nmse = 0.2\nsamples = 5\nvalue = 0.5"] ;
231 -> 232 ;
233 [label="mse = 0.0\nsamples = 2\nvalue = 1.0"] ;
232 -> 233 ;
234 [label="mse = 0.0\nsamples = 3\nvalue = 0.0"] ;
232 -> 234 ;
235 [label="mse = 0.0\nsamples = 2\nvalue = 2.0"] ;
231 -> 235 ;
236 [label="HTGDIFF_3 <= -0.5\nmse = 0.5\nsamples = 14\nvalue = 1.0"] ;
222 -> 236 ;
237 [label="FTHG_6 <= 2.0\nmse = 0.2\nsamples = 4\nvalue = 1.8"] ;
236 -> 237 ;
238 [label="mse = 0.0\nsamples = 1\nvalue = 1.0"] ;
237 -> 238 ;
239 [label="mse = 0.0\nsamples = 3\nvalue = 2.0"] ;
237 -> 239 ;
240 [label="Month <= 8.5\nmse = 0.3\nsamples = 10\nvalue = 0.7"] ;
236 -> 240 ;
241 [label="AVGFTHG <= 2.9\nmse = 0.1\nsamples = 5\nvalue = 1.1"] ;
240 -> 241 ;
242 [label="mse = 0.0\nsamples = 4\nvalue = 1.0"] ;
241 -> 242 ;
243 [label="mse = 0.0\nsamples = 1\nvalue = 2.0"] ;
241 -> 243 ;
244 [label="Day <= 15.0\nmse = 0.1\nsamples = 5\nvalue = 0.1"] ;
240 -> 244 ;
245 [label="mse = 0.0\nsamples = 4\nvalue = 0.0"] ;
244 -> 245 ;
246 [label="mse = 0.0\nsamples = 1\nvalue = 1.0"] ;
244 -> 246 ;
247 [label="HST_10 <= 6.5\nmse = 2.1\nsamples = 8\nvalue = 3.2"] ;
197 -> 247 ;
248 [label="HST_7 <= 7.5\nmse = 0.1\nsamples = 3\nvalue = 1.8"] ;
247 -> 248 ;
249 [label="mse = 0.0\nsamples = 2\nvalue = 2.0"] ;
248 -> 249 ;
250 [label="mse = 0.0\nsamples = 1\nvalue = 1.0"] ;
248 -> 250 ;
251 [label="HST_7 <= 8.5\nmse = 1.3\nsamples = 5\nvalue = 4.1"] ;
247 -> 251 ;
252 [label="FTHG_6 <= 2.5\nmse = 0.5\nsamples = 4\nvalue = 3.6"] ;
251 -> 252 ;
253 [label="mse = 0.0\nsamples = 2\nvalue = 4.0"] ;
252 -> 253 ;
254 [label="FTHG_6 <= 4.0\nmse = 0.2\nsamples = 2\nvalue = 2.5"] ;
252 -> 254 ;
255 [label="mse = 0.0\nsamples = 1\nvalue = 3.0"] ;
254 -> 255 ;
256 [label="mse = 0.0\nsamples = 1\nvalue = 2.0"] ;
254 -> 256 ;
257 [label="mse = 0.0\nsamples = 1\nvalue = 6.0"] ;
251 -> 257 ;
258 [label="HTGDIFF_6 <= -0.5\nmse = 1.6\nsamples = 15\nvalue = 3.6"] ;
0 -> 258 [labeldistance=2.5, labelangle=-45, headlabel="False"] ;
259 [label="mse = 0.0\nsamples = 1\nvalue = 6.0"] ;
258 -> 259 ;
260 [label="HST_8 <= 4.5\nmse = 0.8\nsamples = 14\nvalue = 3.3"] ;
258 -> 260 ;
261 [label="HST_1 <= 9.0\nmse = 0.2\nsamples = 3\nvalue = 4.5"] ;
260 -> 261 ;
262 [label="mse = 0.0\nsamples = 2\nvalue = 4.0"] ;
261 -> 262 ;
263 [label="mse = 0.0\nsamples = 1\nvalue = 5.0"] ;
261 -> 263 ;
264 [label="HST_1 <= 5.5\nmse = 0.5\nsamples = 11\nvalue = 2.9"] ;
260 -> 264 ;
265 [label="AVGHTGDIFF <= 1.8\nmse = 0.2\nsamples = 4\nvalue = 2.3"] ;
264 -> 265 ;
266 [label="mse = 0.0\nsamples = 1\nvalue = 3.0"] ;
265 -> 266 ;
267 [label="mse = 0.0\nsamples = 3\nvalue = 2.0"] ;
265 -> 267 ;
268 [label="HST_5 <= 8.5\nmse = 0.2\nsamples = 7\nvalue = 3.3"] ;
264 -> 268 ;
269 [label="mse = 0.0\nsamples = 5\nvalue = 3.0"] ;
268 -> 269 ;
270 [label="mse = 0.0\nsamples = 2\nvalue = 4.0"] ;
268 -> 270 ;
}