digraph Tree {
node [shape=box, style="rounded", color="black", fontname=helvetica] ;
edge [fontname=helvetica] ;
0 [label="AST_7 <= 13.5\nmse = 1.6\nsamples = 207\nvalue = 1.4"] ;
1 [label="AVGFTAG <= 0.9\nmse = 1.5\nsamples = 205\nvalue = 1.4"] ;
0 -> 1 [labeldistance=2.5, labelangle=45, headlabel="True"] ;
2 [label="AVGATGDIFF <= -2.2\nmse = 0.8\nsamples = 40\nvalue = 0.8"] ;
1 -> 2 ;
3 [label="mse = 0.0\nsamples = 8\nvalue = 0.0"] ;
2 -> 3 ;
4 [label="FTAG_5 <= 0.5\nmse = 0.8\nsamples = 32\nvalue = 1.0"] ;
2 -> 4 ;
5 [label="AVGATGDIFF <= -0.5\nmse = 0.9\nsamples = 22\nvalue = 1.3"] ;
4 -> 5 ;
6 [label="AST_1 <= 1.5\nmse = 0.8\nsamples = 14\nvalue = 1.5"] ;
5 -> 6 ;
7 [label="AST_2 <= 0.5\nmse = 0.5\nsamples = 5\nvalue = 2.3"] ;
6 -> 7 ;
8 [label="mse = 0.8\nsamples = 2\nvalue = 2.5"] ;
7 -> 8 ;
9 [label="mse = 0.0\nsamples = 3\nvalue = 2.0"] ;
7 -> 9 ;
10 [label="AVGATGDIFF <= -0.9\nmse = 0.6\nsamples = 9\nvalue = 1.1"] ;
6 -> 10 ;
11 [label="AST_2 <= 0.5\nmse = 0.3\nsamples = 8\nvalue = 1.0"] ;
10 -> 11 ;
12 [label="mse = 0.0\nsamples = 2\nvalue = 2.0"] ;
11 -> 12 ;
13 [label="ATGDIFF_9 <= -1.0\nmse = 0.1\nsamples = 6\nvalue = 0.8"] ;
11 -> 13 ;
14 [label="mse = 0.0\nsamples = 4\nvalue = 1.0"] ;
13 -> 14 ;
15 [label="mse = 0.0\nsamples = 2\nvalue = 0.0"] ;
13 -> 15 ;
16 [label="mse = 0.0\nsamples = 1\nvalue = 3.0"] ;
10 -> 16 ;
17 [label="AST_4 <= 2.5\nmse = 0.7\nsamples = 8\nvalue = 0.9"] ;
5 -> 17 ;
18 [label="mse = 0.8\nsamples = 7\nvalue = 0.8"] ;
17 -> 18 ;
19 [label="mse = 0.0\nsamples = 1\nvalue = 1.0"] ;
17 -> 19 ;
20 [label="ATGDIFF_10 <= -0.5\nmse = 0.2\nsamples = 10\nvalue = 0.5"] ;
4 -> 20 ;
21 [label="AST_6 <= 1.5\nmse = 0.1\nsamples = 5\nvalue = 0.9"] ;
20 -> 21 ;
22 [label="mse = 0.0\nsamples = 1\nvalue = 0.0"] ;
21 -> 22 ;
23 [label="mse = 0.0\nsamples = 4\nvalue = 1.0"] ;
21 -> 23 ;
24 [label="ATGDIFF_1 <= -1.0\nmse = 0.1\nsamples = 5\nvalue = 0.1"] ;
20 -> 24 ;
25 [label="mse = 0.0\nsamples = 4\nvalue = 0.0"] ;
24 -> 25 ;
26 [label="mse = 0.0\nsamples = 1\nvalue = 1.0"] ;
24 -> 26 ;
27 [label="ATGDIFF_5 <= 1.5\nmse = 1.5\nsamples = 165\nvalue = 1.6"] ;
1 -> 27 ;
28 [label="AST_3 <= 6.5\nmse = 1.4\nsamples = 134\nvalue = 1.4"] ;
27 -> 28 ;
29 [label="AST_4 <= 10.5\nmse = 1.3\nsamples = 101\nvalue = 1.3"] ;
28 -> 29 ;
30 [label="AST_6 <= 7.5\nmse = 1.2\nsamples = 99\nvalue = 1.2"] ;
29 -> 30 ;
31 [label="AVGATGDIFF <= -1.4\nmse = 1.0\nsamples = 90\nvalue = 1.2"] ;
30 -> 31 ;
32 [label="ATGDIFF_2 <= 0.5\nmse = 0.6\nsamples = 5\nvalue = 2.3"] ;
31 -> 32 ;
33 [label="AST_9 <= 0.5\nmse = 0.2\nsamples = 3\nvalue = 2.6"] ;
32 -> 33 ;
34 [label="mse = 0.0\nsamples = 2\nvalue = 3.0"] ;
33 -> 34 ;
35 [label="mse = 0.0\nsamples = 1\nvalue = 2.0"] ;
33 -> 35 ;
36 [label="mse = 0.0\nsamples = 2\nvalue = 1.0"] ;
32 -> 36 ;
37 [label="AVGATGDIFF <= -1.2\nmse = 0.9\nsamples = 85\nvalue = 1.1"] ;
31 -> 37 ;
38 [label="mse = 0.0\nsamples = 5\nvalue = 0.0"] ;
37 -> 38 ;
39 [label="ATGDIFF_3 <= -5.5\nmse = 0.9\nsamples = 80\nvalue = 1.1"] ;
37 -> 39 ;
40 [label="mse = 0.0\nsamples = 1\nvalue = 4.0"] ;
39 -> 40 ;
41 [label="ATGDIFF_8 <= -5.5\nmse = 0.8\nsamples = 79\nvalue = 1.1"] ;
39 -> 41 ;
42 [label="mse = 0.0\nsamples = 1\nvalue = 4.0"] ;
41 -> 42 ;
43 [label="AST_3 <= 2.5\nmse = 0.7\nsamples = 78\nvalue = 1.1"] ;
41 -> 43 ;
44 [label="AVGFTAG <= 1.2\nmse = 0.8\nsamples = 31\nvalue = 1.4"] ;
43 -> 44 ;
45 [label="ATGDIFF_1 <= 2.0\nmse = 0.4\nsamples = 10\nvalue = 1.0"] ;
44 -> 45 ;
46 [label="AST_1 <= 2.0\nmse = 0.2\nsamples = 8\nvalue = 0.8"] ;
45 -> 46 ;
47 [label="FTAG_1 <= 0.5\nmse = 0.2\nsamples = 2\nvalue = 0.2"] ;
46 -> 47 ;
48 [label="mse = 0.0\nsamples = 1\nvalue = 1.0"] ;
47 -> 48 ;
49 [label="mse = 0.0\nsamples = 1\nvalue = 0.0"] ;
47 -> 49 ;
50 [label="mse = 0.0\nsamples = 6\nvalue = 1.0"] ;
46 -> 50 ;
51 [label="mse = 0.0\nsamples = 2\nvalue = 2.0"] ;
45 -> 51 ;
52 [label="AVGATGDIFF <= -0.2\nmse = 0.9\nsamples = 21\nvalue = 1.6"] ;
44 -> 52 ;
53 [label="FTAG_5 <= 0.5\nmse = 0.3\nsamples = 9\nvalue = 2.2"] ;
52 -> 53 ;
54 [label="mse = 0.0\nsamples = 2\nvalue = 3.0"] ;
53 -> 54 ;
55 [label="AVGFTAG <= 1.5\nmse = 0.1\nsamples = 7\nvalue = 1.9"] ;
53 -> 55 ;
56 [label="mse = 0.0\nsamples = 6\nvalue = 2.0"] ;
55 -> 56 ;
57 [label="mse = 0.0\nsamples = 1\nvalue = 1.0"] ;
55 -> 57 ;
58 [label="AST_1 <= 2.5\nmse = 1.0\nsamples = 12\nvalue = 1.2"] ;
52 -> 58 ;
59 [label="AST_1 <= 1.0\nmse = 0.9\nsamples = 2\nvalue = 2.7"] ;
58 -> 59 ;
60 [label="mse = 0.0\nsamples = 1\nvalue = 2.0"] ;
59 -> 60 ;
61 [label="mse = 0.0\nsamples = 1\nvalue = 4.0"] ;
59 -> 61 ;
62 [label="ATGDIFF_6 <= 0.5\nmse = 0.5\nsamples = 10\nvalue = 0.9"] ;
58 -> 62 ;
63 [label="AVGATGDIFF <= 0.8\nmse = 0.2\nsamples = 7\nvalue = 0.6"] ;
62 -> 63 ;
64 [label="ATGDIFF_9 <= 1.0\nmse = 0.2\nsamples = 5\nvalue = 0.8"] ;
63 -> 64 ;
65 [label="ATGDIFF_1 <= -0.5\nmse = 0.1\nsamples = 4\nvalue = 0.9"] ;
64 -> 65 ;
66 [label="mse = 0.0\nsamples = 1\nvalue = 0.0"] ;
65 -> 66 ;
67 [label="mse = 0.0\nsamples = 3\nvalue = 1.0"] ;
65 -> 67 ;
68 [label="mse = 0.0\nsamples = 1\nvalue = 0.0"] ;
64 -> 68 ;
69 [label="mse = 0.0\nsamples = 2\nvalue = 0.0"] ;
63 -> 69 ;
70 [label="ATGDIFF_2 <= 0.5\nmse = 0.2\nsamples = 3\nvalue = 1.8"] ;
62 -> 70 ;
71 [label="mse = 0.0\nsamples = 2\nvalue = 2.0"] ;
70 -> 71 ;
72 [label="mse = 0.0\nsamples = 1\nvalue = 1.0"] ;
70 -> 72 ;
73 [label="FTAG_1 <= 2.5\nmse = 0.6\nsamples = 47\nvalue = 0.9"] ;
43 -> 73 ;
74 [label="FTAG_7 <= 2.5\nmse = 0.4\nsamples = 38\nvalue = 0.7"] ;
73 -> 74 ;
75 [label="AST_7 <= 5.5\nmse = 0.4\nsamples = 32\nvalue = 0.9"] ;
74 -> 75 ;
76 [label="ATGDIFF_6 <= -2.5\nmse = 0.3\nsamples = 28\nvalue = 0.7"] ;
75 -> 76 ;
77 [label="mse = 0.0\nsamples = 2\nvalue = 0.0"] ;
76 -> 77 ;
78 [label="AST_1 <= 1.5\nmse = 0.3\nsamples = 26\nvalue = 0.8"] ;
76 -> 78 ;
79 [label="AST_2 <= 1.5\nmse = 0.2\nsamples = 4\nvalue = 0.2"] ;
78 -> 79 ;
80 [label="mse = 0.0\nsamples = 1\nvalue = 1.0"] ;
79 -> 80 ;
81 [label="mse = 0.0\nsamples = 3\nvalue = 0.0"] ;
79 -> 81 ;
82 [label="AST_3 <= 4.5\nmse = 0.2\nsamples = 22\nvalue = 0.9"] ;
78 -> 82 ;
83 [label="FTAG_2 <= 3.5\nmse = 0.2\nsamples = 12\nvalue = 1.1"] ;
82 -> 83 ;
84 [label="FTAG_3 <= 3.0\nmse = 0.1\nsamples = 11\nvalue = 1.1"] ;
83 -> 84 ;
85 [label="AVGFTAG <= 1.9\nmse = 0.1\nsamples = 10\nvalue = 1.1"] ;
84 -> 85 ;
86 [label="mse = 0.0\nsamples = 9\nvalue = 1.0"] ;
85 -> 86 ;
87 [label="mse = 0.0\nsamples = 1\nvalue = 2.0"] ;
85 -> 87 ;
88 [label="mse = 0.0\nsamples = 1\nvalue = 2.0"] ;
84 -> 88 ;
89 [label="mse = 0.0\nsamples = 1\nvalue = 0.0"] ;
83 -> 89 ;
90 [label="AST_4 <= 4.5\nmse = 0.2\nsamples = 10\nvalue = 0.6"] ;
82 -> 90 ;
91 [label="mse = 0.0\nsamples = 3\nvalue = 0.0"] ;
90 -> 91 ;
92 [label="AST_6 <= 6.5\nmse = 0.1\nsamples = 7\nvalue = 0.9"] ;
90 -> 92 ;
93 [label="mse = 0.0\nsamples = 6\nvalue = 1.0"] ;
92 -> 93 ;
94 [label="mse = 0.0\nsamples = 1\nvalue = 0.0"] ;
92 -> 94 ;
95 [label="AST_10 <= 4.0\nmse = 0.2\nsamples = 4\nvalue = 1.5"] ;
75 -> 95 ;
96 [label="mse = 0.0\nsamples = 2\nvalue = 2.0"] ;
95 -> 96 ;
97 [label="mse = 0.0\nsamples = 2\nvalue = 1.0"] ;
95 -> 97 ;
98 [label="ATGDIFF_8 <= -1.5\nmse = 0.1\nsamples = 6\nvalue = 0.1"] ;
74 -> 98 ;
99 [label="mse = 0.0\nsamples = 1\nvalue = 1.0"] ;
98 -> 99 ;
100 [label="mse = 0.0\nsamples = 5\nvalue = 0.0"] ;
98 -> 100 ;
101 [label="AST_1 <= 7.0\nmse = 0.9\nsamples = 9\nvalue = 1.6"] ;
73 -> 101 ;
102 [label="AVGATGDIFF <= -0.8\nmse = 0.2\nsamples = 7\nvalue = 1.2"] ;
101 -> 102 ;
103 [label="mse = 0.0\nsamples = 1\nvalue = 2.0"] ;
102 -> 103 ;
104 [label="mse = 0.0\nsamples = 6\nvalue = 1.0"] ;
102 -> 104 ;
105 [label="FTAG_4 <= 1.5\nmse = 0.2\nsamples = 2\nvalue = 3.5"] ;
101 -> 105 ;
106 [label="mse = 0.0\nsamples = 1\nvalue = 4.0"] ;
105 -> 106 ;
107 [label="mse = 0.0\nsamples = 1\nvalue = 3.0"] ;
105 -> 107 ;
108 [label="AVGFTAG <= 1.6\nmse = 3.4\nsamples = 9\nvalue = 2.3"] ;
30 -> 108 ;
109 [label="ATGDIFF_2 <= -1.0\nmse = 0.2\nsamples = 3\nvalue = 0.6"] ;
108 -> 109 ;
110 [label="mse = 0.0\nsamples = 1\nvalue = 1.0"] ;
109 -> 110 ;
111 [label="mse = 0.0\nsamples = 2\nvalue = 0.0"] ;
109 -> 111 ;
112 [label="AST_5 <= 3.5\nmse = 2.0\nsamples = 6\nvalue = 3.6"] ;
108 -> 112 ;
113 [label="mse = 0.0\nsamples = 2\nvalue = 5.0"] ;
112 -> 113 ;
114 [label="FTAG_2 <= 0.5\nmse = 0.8\nsamples = 4\nvalue = 2.5"] ;
112 -> 114 ;
115 [label="mse = 0.0\nsamples = 1\nvalue = 1.0"] ;
114 -> 115 ;
116 [label="mse = 0.0\nsamples = 3\nvalue = 3.0"] ;
114 -> 116 ;
117 [label="mse = 0.0\nsamples = 2\nvalue = 4.0"] ;
29 -> 117 ;
118 [label="AVGFTAG <= 1.9\nmse = 1.2\nsamples = 33\nvalue = 1.9"] ;
28 -> 118 ;
119 [label="AST_5 <= 3.5\nmse = 0.8\nsamples = 20\nvalue = 2.5"] ;
118 -> 119 ;
120 [label="FTAG_4 <= 2.5\nmse = 0.2\nsamples = 6\nvalue = 1.5"] ;
119 -> 120 ;
121 [label="mse = 0.0\nsamples = 3\nvalue = 1.0"] ;
120 -> 121 ;
122 [label="mse = 0.0\nsamples = 3\nvalue = 2.0"] ;
120 -> 122 ;
123 [label="ATGDIFF_10 <= -1.0\nmse = 0.6\nsamples = 14\nvalue = 2.8"] ;
119 -> 123 ;
124 [label="FTAG_3 <= 1.5\nmse = 0.6\nsamples = 3\nvalue = 3.8"] ;
123 -> 124 ;
125 [label="mse = 0.0\nsamples = 1\nvalue = 3.0"] ;
124 -> 125 ;
126 [label="AST_6 <= 6.0\nmse = 0.2\nsamples = 2\nvalue = 4.3"] ;
124 -> 126 ;
127 [label="mse = 0.0\nsamples = 1\nvalue = 5.0"] ;
126 -> 127 ;
128 [label="mse = 0.0\nsamples = 1\nvalue = 4.0"] ;
126 -> 128 ;
129 [label="AST_10 <= 6.5\nmse = 0.3\nsamples = 11\nvalue = 2.6"] ;
123 -> 129 ;
130 [label="ATGDIFF_6 <= -1.0\nmse = 0.1\nsamples = 7\nvalue = 2.9"] ;
129 -> 130 ;
131 [label="mse = 0.0\nsamples = 2\nvalue = 2.0"] ;
130 -> 131 ;
132 [label="mse = 0.0\nsamples = 5\nvalue = 3.0"] ;
130 -> 132 ;
133 [label="FTAG_4 <= 3.0\nmse = 0.4\nsamples = 4\nvalue = 2.1"] ;
129 -> 133 ;
134 [label="FTAG_10 <= 2.5\nmse = 0.1\nsamples = 3\nvalue = 1.8"] ;
133 -> 134 ;
135 [label="mse = 0.0\nsamples = 2\nvalue = 2.0"] ;
134 -> 135 ;
136 [label="mse = 0.0\nsamples = 1\nvalue = 1.0"] ;
134 -> 136 ;
137 [label="mse = 0.0\nsamples = 1\nvalue = 3.0"] ;
133 -> 137 ;
138 [label="AST_4 <= 5.5\nmse = 0.6\nsamples = 13\nvalue = 1.0"] ;
118 -> 138 ;
139 [label="ATGDIFF_3 <= 3.5\nmse = 0.2\nsamples = 7\nvalue = 0.4"] ;
138 -> 139 ;
140 [label="mse = 0.0\nsamples = 5\nvalue = 0.0"] ;
139 -> 140 ;
141 [label="mse = 0.0\nsamples = 2\nvalue = 1.0"] ;
139 -> 141 ;
142 [label="AVGATGDIFF <= 0.7\nmse = 0.4\nsamples = 6\nvalue = 1.4"] ;
138 -> 142 ;
143 [label="ATGDIFF_10 <= 1.5\nmse = 0.2\nsamples = 3\nvalue = 2.2"] ;
142 -> 143 ;
144 [label="mse = 0.0\nsamples = 2\nvalue = 2.0"] ;
143 -> 144 ;
145 [label="mse = 0.0\nsamples = 1\nvalue = 3.0"] ;
143 -> 145 ;
146 [label="mse = 0.0\nsamples = 3\nvalue = 1.0"] ;
142 -> 146 ;
147 [label="AVGATGDIFF <= 0.7\nmse = 1.8\nsamples = 31\nvalue = 2.1"] ;
27 -> 147 ;
148 [label="FTAG_9 <= 1.5\nmse = 1.6\nsamples = 25\nvalue = 1.8"] ;
147 -> 148 ;
149 [label="AVGATGDIFF <= -0.9\nmse = 1.1\nsamples = 18\nvalue = 2.2"] ;
148 -> 149 ;
150 [label="AVGATGDIFF <= -1.3\nmse = 0.2\nsamples = 3\nvalue = 0.3"] ;
149 -> 150 ;
151 [label="mse = 0.0\nsamples = 1\nvalue = 1.0"] ;
150 -> 151 ;
152 [label="mse = 0.0\nsamples = 2\nvalue = 0.0"] ;
150 -> 152 ;
153 [label="ATGDIFF_1 <= -0.5\nmse = 0.8\nsamples = 15\nvalue = 2.5"] ;
149 -> 153 ;
154 [label="ATGDIFF_6 <= -0.5\nmse = 0.2\nsamples = 5\nvalue = 1.7"] ;
153 -> 154 ;
155 [label="mse = 0.0\nsamples = 2\nvalue = 2.0"] ;
154 -> 155 ;
156 [label="mse = 0.0\nsamples = 3\nvalue = 1.0"] ;
154 -> 156 ;
157 [label="AST_5 <= 11.5\nmse = 0.6\nsamples = 10\nvalue = 2.9"] ;
153 -> 157 ;
158 [label="ATGDIFF_3 <= 0.5\nmse = 0.4\nsamples = 9\nvalue = 2.6"] ;
157 -> 158 ;
159 [label="AST_2 <= 3.5\nmse = 0.1\nsamples = 7\nvalue = 2.8"] ;
158 -> 159 ;
160 [label="mse = 0.0\nsamples = 1\nvalue = 2.0"] ;
159 -> 160 ;
161 [label="mse = 0.0\nsamples = 6\nvalue = 3.0"] ;
159 -> 161 ;
162 [label="ATGDIFF_6 <= 2.0\nmse = 0.2\nsamples = 2\nvalue = 1.5"] ;
158 -> 162 ;
163 [label="mse = 0.0\nsamples = 1\nvalue = 1.0"] ;
162 -> 163 ;
164 [label="mse = 0.0\nsamples = 1\nvalue = 2.0"] ;
162 -> 164 ;
165 [label="mse = 0.0\nsamples = 1\nvalue = 4.0"] ;
157 -> 165 ;
166 [label="ATGDIFF_1 <= -2.0\nmse = 0.5\nsamples = 7\nvalue = 0.4"] ;
148 -> 166 ;
167 [label="AVGATGDIFF <= 0.1\nmse = 0.2\nsamples = 2\nvalue = 1.3"] ;
166 -> 167 ;
168 [label="mse = 0.0\nsamples = 1\nvalue = 1.0"] ;
167 -> 168 ;
169 [label="mse = 0.0\nsamples = 1\nvalue = 2.0"] ;
167 -> 169 ;
170 [label="mse = 0.0\nsamples = 5\nvalue = 0.0"] ;
166 -> 170 ;
171 [label="AVGFTAG <= 2.3\nmse = 0.5\nsamples = 6\nvalue = 3.6"] ;
147 -> 171 ;
172 [label="AST_9 <= 8.5\nmse = 0.2\nsamples = 3\nvalue = 4.3"] ;
171 -> 172 ;
173 [label="mse = 0.0\nsamples = 2\nvalue = 4.0"] ;
172 -> 173 ;
174 [label="mse = 0.0\nsamples = 1\nvalue = 5.0"] ;
172 -> 174 ;
175 [label="mse = 0.0\nsamples = 3\nvalue = 3.0"] ;
171 -> 175 ;
176 [label="ATGDIFF_10 <= 0.5\nmse = 0.2\nsamples = 2\nvalue = 4.5"] ;
0 -> 176 [labeldistance=2.5, labelangle=-45, headlabel="False"] ;
177 [label="mse = 0.0\nsamples = 1\nvalue = 5.0"] ;
176 -> 177 ;
178 [label="mse = 0.0\nsamples = 1\nvalue = 4.0"] ;
176 -> 178 ;
}