digraph Tree {
node [shape=box, style="rounded", color="black", fontname=helvetica] ;
edge [fontname=helvetica] ;
0 [label="AVGATGDIFF <= 0.8\nmse = 1.6\nsamples = 262\nvalue = 1.4"] ;
1 [label="AVGFTAG <= 2.1\nmse = 1.4\nsamples = 247\nvalue = 1.3"] ;
0 -> 1 [labeldistance=2.5, labelangle=45, headlabel="True"] ;
2 [label="AVGATGDIFF <= -1.1\nmse = 1.4\nsamples = 242\nvalue = 1.3"] ;
1 -> 2 ;
3 [label="Month <= 11.0\nmse = 0.6\nsamples = 27\nvalue = 0.7"] ;
2 -> 3 ;
4 [label="AST_1 <= 4.5\nmse = 0.3\nsamples = 26\nvalue = 0.6"] ;
3 -> 4 ;
5 [label="Month <= 1.5\nmse = 0.3\nsamples = 20\nvalue = 0.5"] ;
4 -> 5 ;
6 [label="mse = 0.0\nsamples = 1\nvalue = 2.0"] ;
5 -> 6 ;
7 [label="AVGFTAG <= 0.6\nmse = 0.2\nsamples = 19\nvalue = 0.4"] ;
5 -> 7 ;
8 [label="Month <= 9.0\nmse = 0.1\nsamples = 5\nvalue = 0.1"] ;
7 -> 8 ;
9 [label="mse = 0.0\nsamples = 4\nvalue = 0.0"] ;
8 -> 9 ;
10 [label="mse = 0.0\nsamples = 1\nvalue = 1.0"] ;
8 -> 10 ;
11 [label="AVGATGDIFF <= -1.8\nmse = 0.2\nsamples = 14\nvalue = 0.5"] ;
7 -> 11 ;
12 [label="AST_1 <= 0.5\nmse = 0.2\nsamples = 10\nvalue = 0.8"] ;
11 -> 12 ;
13 [label="mse = 0.0\nsamples = 1\nvalue = 0.0"] ;
12 -> 13 ;
14 [label="AVGFTAG <= 0.8\nmse = 0.1\nsamples = 9\nvalue = 0.9"] ;
12 -> 14 ;
15 [label="mse = 0.0\nsamples = 4\nvalue = 1.0"] ;
14 -> 15 ;
16 [label="Month <= 7.5\nmse = 0.2\nsamples = 5\nvalue = 0.7"] ;
14 -> 16 ;
17 [label="AVGATGDIFF <= -1.9\nmse = 0.1\nsamples = 4\nvalue = 0.8"] ;
16 -> 17 ;
18 [label="mse = 0.0\nsamples = 2\nvalue = 1.0"] ;
17 -> 18 ;
19 [label="AVGFTAG <= 1.1\nmse = 0.2\nsamples = 2\nvalue = 0.7"] ;
17 -> 19 ;
20 [label="mse = 0.0\nsamples = 1\nvalue = 0.0"] ;
19 -> 20 ;
21 [label="mse = 0.0\nsamples = 1\nvalue = 1.0"] ;
19 -> 21 ;
22 [label="mse = 0.0\nsamples = 1\nvalue = 0.0"] ;
16 -> 22 ;
23 [label="mse = 0.0\nsamples = 4\nvalue = 0.0"] ;
11 -> 23 ;
24 [label="AVGATGDIFF <= -1.6\nmse = 0.2\nsamples = 6\nvalue = 1.0"] ;
4 -> 24 ;
25 [label="AST_1 <= 8.5\nmse = 0.1\nsamples = 5\nvalue = 0.9"] ;
24 -> 25 ;
26 [label="mse = 0.0\nsamples = 4\nvalue = 1.0"] ;
25 -> 26 ;
27 [label="mse = 0.0\nsamples = 1\nvalue = 0.0"] ;
25 -> 27 ;
28 [label="mse = 0.0\nsamples = 1\nvalue = 2.0"] ;
24 -> 28 ;
29 [label="mse = 0.0\nsamples = 1\nvalue = 4.0"] ;
3 -> 29 ;
30 [label="Month <= 3.5\nmse = 1.4\nsamples = 215\nvalue = 1.4"] ;
2 -> 30 ;
31 [label="AVGATGDIFF <= -0.3\nmse = 1.3\nsamples = 50\nvalue = 1.7"] ;
30 -> 31 ;
32 [label="AST_2 <= 2.5\nmse = 1.0\nsamples = 11\nvalue = 1.0"] ;
31 -> 32 ;
33 [label="mse = 0.0\nsamples = 1\nvalue = 0.0"] ;
32 -> 33 ;
34 [label="AST_1 <= 5.5\nmse = 1.0\nsamples = 10\nvalue = 1.1"] ;
32 -> 34 ;
35 [label="AVGATGDIFF <= -0.8\nmse = 0.5\nsamples = 9\nvalue = 0.9"] ;
34 -> 35 ;
36 [label="AST_1 <= 4.0\nmse = 0.2\nsamples = 3\nvalue = 1.7"] ;
35 -> 36 ;
37 [label="mse = 0.0\nsamples = 2\nvalue = 2.0"] ;
36 -> 37 ;
38 [label="mse = 0.0\nsamples = 1\nvalue = 1.0"] ;
36 -> 38 ;
39 [label="AST_2 <= 3.5\nmse = 0.4\nsamples = 6\nvalue = 0.8"] ;
35 -> 39 ;
40 [label="Month <= 2.5\nmse = 0.2\nsamples = 2\nvalue = 0.2"] ;
39 -> 40 ;
41 [label="mse = 0.0\nsamples = 1\nvalue = 0.0"] ;
40 -> 41 ;
42 [label="mse = 0.0\nsamples = 1\nvalue = 1.0"] ;
40 -> 42 ;
43 [label="AST_2 <= 4.5\nmse = 0.1\nsamples = 4\nvalue = 1.1"] ;
39 -> 43 ;
44 [label="mse = 0.0\nsamples = 1\nvalue = 2.0"] ;
43 -> 44 ;
45 [label="mse = 0.0\nsamples = 3\nvalue = 1.0"] ;
43 -> 45 ;
46 [label="mse = 0.0\nsamples = 1\nvalue = 4.0"] ;
34 -> 46 ;
47 [label="AST_2 <= 6.5\nmse = 1.2\nsamples = 39\nvalue = 1.9"] ;
31 -> 47 ;
48 [label="AVGFTAG <= 1.4\nmse = 1.2\nsamples = 32\nvalue = 2.0"] ;
47 -> 48 ;
49 [label="AVGATGDIFF <= -0.1\nmse = 1.2\nsamples = 23\nvalue = 1.9"] ;
48 -> 49 ;
50 [label="AVGATGDIFF <= -0.2\nmse = 0.7\nsamples = 3\nvalue = 1.2"] ;
49 -> 50 ;
51 [label="mse = 0.0\nsamples = 1\nvalue = 2.0"] ;
50 -> 51 ;
52 [label="AVGFTAG <= 1.2\nmse = 0.2\nsamples = 2\nvalue = 0.5"] ;
50 -> 52 ;
53 [label="mse = 0.0\nsamples = 1\nvalue = 1.0"] ;
52 -> 53 ;
54 [label="mse = 0.0\nsamples = 1\nvalue = 0.0"] ;
52 -> 54 ;
55 [label="AVGFTAG <= 0.6\nmse = 1.2\nsamples = 20\nvalue = 2.0"] ;
49 -> 55 ;
56 [label="AST_1 <= 0.5\nmse = 1.2\nsamples = 17\nvalue = 1.9"] ;
55 -> 56 ;
57 [label="Month <= 2.0\nmse = 2.2\nsamples = 6\nvalue = 2.2"] ;
56 -> 57 ;
58 [label="mse = 0.9\nsamples = 4\nvalue = 1.7"] ;
57 -> 58 ;
59 [label="mse = 3.0\nsamples = 2\nvalue = 3.0"] ;
57 -> 59 ;
60 [label="Month <= 1.5\nmse = 0.6\nsamples = 11\nvalue = 1.7"] ;
56 -> 60 ;
61 [label="AST_1 <= 2.5\nmse = 0.7\nsamples = 7\nvalue = 2.0"] ;
60 -> 61 ;
62 [label="mse = 0.0\nsamples = 1\nvalue = 1.0"] ;
61 -> 62 ;
63 [label="AST_2 <= 4.5\nmse = 0.7\nsamples = 6\nvalue = 2.1"] ;
61 -> 63 ;
64 [label="AST_2 <= 3.0\nmse = 0.2\nsamples = 3\nvalue = 1.8"] ;
63 -> 64 ;
65 [label="mse = 0.0\nsamples = 2\nvalue = 2.0"] ;
64 -> 65 ;
66 [label="mse = 0.0\nsamples = 1\nvalue = 1.0"] ;
64 -> 66 ;
67 [label="AST_1 <= 5.5\nmse = 0.9\nsamples = 3\nvalue = 2.3"] ;
63 -> 67 ;
68 [label="mse = 0.0\nsamples = 1\nvalue = 3.0"] ;
67 -> 68 ;
69 [label="mse = 1.0\nsamples = 2\nvalue = 2.0"] ;
67 -> 69 ;
70 [label="AST_1 <= 4.5\nmse = 0.2\nsamples = 4\nvalue = 1.2"] ;
60 -> 70 ;
71 [label="mse = 0.0\nsamples = 2\nvalue = 1.0"] ;
70 -> 71 ;
72 [label="AST_1 <= 6.0\nmse = 0.2\nsamples = 2\nvalue = 1.5"] ;
70 -> 72 ;
73 [label="mse = 0.0\nsamples = 1\nvalue = 2.0"] ;
72 -> 73 ;
74 [label="mse = 0.0\nsamples = 1\nvalue = 1.0"] ;
72 -> 74 ;
75 [label="AST_2 <= 3.5\nmse = 0.6\nsamples = 3\nvalue = 2.6"] ;
55 -> 75 ;
76 [label="mse = 0.0\nsamples = 1\nvalue = 1.0"] ;
75 -> 76 ;
77 [label="mse = 0.0\nsamples = 2\nvalue = 3.0"] ;
75 -> 77 ;
78 [label="AVGATGDIFF <= 0.5\nmse = 0.9\nsamples = 9\nvalue = 2.4"] ;
48 -> 78 ;
79 [label="AVGFTAG <= 1.7\nmse = 0.4\nsamples = 6\nvalue = 2.7"] ;
78 -> 79 ;
80 [label="mse = 0.0\nsamples = 4\nvalue = 3.0"] ;
79 -> 80 ;
81 [label="AST_1 <= 7.0\nmse = 0.2\nsamples = 2\nvalue = 1.7"] ;
79 -> 81 ;
82 [label="mse = 0.0\nsamples = 1\nvalue = 1.0"] ;
81 -> 82 ;
83 [label="mse = 0.0\nsamples = 1\nvalue = 2.0"] ;
81 -> 83 ;
84 [label="AVGATGDIFF <= 0.7\nmse = 1.6\nsamples = 3\nvalue = 1.3"] ;
78 -> 84 ;
85 [label="AVGFTAG <= 1.6\nmse = 0.2\nsamples = 2\nvalue = 0.5"] ;
84 -> 85 ;
86 [label="mse = 0.0\nsamples = 1\nvalue = 0.0"] ;
85 -> 86 ;
87 [label="mse = 0.0\nsamples = 1\nvalue = 1.0"] ;
85 -> 87 ;
88 [label="mse = 0.0\nsamples = 1\nvalue = 3.0"] ;
84 -> 88 ;
89 [label="AVGATGDIFF <= 0.3\nmse = 0.6\nsamples = 7\nvalue = 1.2"] ;
47 -> 89 ;
90 [label="AST_1 <= 2.5\nmse = 0.1\nsamples = 5\nvalue = 0.9"] ;
89 -> 90 ;
91 [label="mse = 0.0\nsamples = 1\nvalue = 0.0"] ;
90 -> 91 ;
92 [label="mse = 0.0\nsamples = 4\nvalue = 1.0"] ;
90 -> 92 ;
93 [label="AVGATGDIFF <= 0.5\nmse = 0.2\nsamples = 2\nvalue = 2.5"] ;
89 -> 93 ;
94 [label="mse = 0.0\nsamples = 1\nvalue = 2.0"] ;
93 -> 94 ;
95 [label="mse = 0.0\nsamples = 1\nvalue = 3.0"] ;
93 -> 95 ;
96 [label="Month <= 7.5\nmse = 1.4\nsamples = 165\nvalue = 1.3"] ;
30 -> 96 ;
97 [label="AVGFTAG <= 1.2\nmse = 0.6\nsamples = 33\nvalue = 0.8"] ;
96 -> 97 ;
98 [label="AST_2 <= 3.5\nmse = 0.4\nsamples = 18\nvalue = 0.4"] ;
97 -> 98 ;
99 [label="AST_2 <= 2.0\nmse = 0.6\nsamples = 10\nvalue = 0.8"] ;
98 -> 99 ;
100 [label="AST_1 <= 4.0\nmse = 0.2\nsamples = 7\nvalue = 0.4"] ;
99 -> 100 ;
101 [label="mse = 0.0\nsamples = 2\nvalue = 1.0"] ;
100 -> 101 ;
102 [label="Month <= 4.5\nmse = 0.1\nsamples = 5\nvalue = 0.1"] ;
100 -> 102 ;
103 [label="AST_1 <= 7.0\nmse = 0.2\nsamples = 2\nvalue = 0.5"] ;
102 -> 103 ;
104 [label="mse = 0.0\nsamples = 1\nvalue = 1.0"] ;
103 -> 104 ;
105 [label="mse = 0.0\nsamples = 1\nvalue = 0.0"] ;
103 -> 105 ;
106 [label="mse = 0.0\nsamples = 3\nvalue = 0.0"] ;
102 -> 106 ;
107 [label="AST_1 <= 3.0\nmse = 0.2\nsamples = 3\nvalue = 1.8"] ;
99 -> 107 ;
108 [label="mse = 0.0\nsamples = 1\nvalue = 1.0"] ;
107 -> 108 ;
109 [label="mse = 0.0\nsamples = 2\nvalue = 2.0"] ;
107 -> 109 ;
110 [label="AVGATGDIFF <= -0.7\nmse = 0.1\nsamples = 8\nvalue = 0.1"] ;
98 -> 110 ;
111 [label="mse = 0.0\nsamples = 1\nvalue = 1.0"] ;
110 -> 111 ;
112 [label="AST_1 <= 4.5\nmse = 0.1\nsamples = 7\nvalue = 0.1"] ;
110 -> 112 ;
113 [label="mse = 0.0\nsamples = 5\nvalue = 0.0"] ;
112 -> 113 ;
114 [label="AST_2 <= 6.5\nmse = 0.2\nsamples = 2\nvalue = 0.5"] ;
112 -> 114 ;
115 [label="mse = 0.0\nsamples = 1\nvalue = 0.0"] ;
114 -> 115 ;
116 [label="mse = 0.0\nsamples = 1\nvalue = 1.0"] ;
114 -> 116 ;
117 [label="AVGATGDIFF <= -0.4\nmse = 0.3\nsamples = 15\nvalue = 1.4"] ;
97 -> 117 ;
118 [label="Month <= 5.5\nmse = 0.1\nsamples = 4\nvalue = 0.8"] ;
117 -> 118 ;
119 [label="mse = 0.0\nsamples = 3\nvalue = 1.0"] ;
118 -> 119 ;
120 [label="mse = 0.0\nsamples = 1\nvalue = 0.0"] ;
118 -> 120 ;
121 [label="AST_2 <= 8.5\nmse = 0.2\nsamples = 11\nvalue = 1.6"] ;
117 -> 121 ;
122 [label="AST_1 <= 9.5\nmse = 0.1\nsamples = 9\nvalue = 1.8"] ;
121 -> 122 ;
123 [label="AVGFTAG <= 1.3\nmse = 0.1\nsamples = 8\nvalue = 1.9"] ;
122 -> 123 ;
124 [label="mse = 0.0\nsamples = 1\nvalue = 1.0"] ;
123 -> 124 ;
125 [label="mse = 0.0\nsamples = 7\nvalue = 2.0"] ;
123 -> 125 ;
126 [label="mse = 0.0\nsamples = 1\nvalue = 1.0"] ;
122 -> 126 ;
127 [label="mse = 0.0\nsamples = 2\nvalue = 1.0"] ;
121 -> 127 ;
128 [label="AST_2 <= 7.5\nmse = 1.5\nsamples = 132\nvalue = 1.4"] ;
96 -> 128 ;
129 [label="AVGATGDIFF <= 0.5\nmse = 1.4\nsamples = 114\nvalue = 1.3"] ;
128 -> 129 ;
130 [label="AST_1 <= 5.5\nmse = 1.5\nsamples = 109\nvalue = 1.3"] ;
129 -> 130 ;
131 [label="AVGFTAG <= 1.8\nmse = 1.7\nsamples = 74\nvalue = 1.5"] ;
130 -> 131 ;
132 [label="Month <= 11.5\nmse = 1.5\nsamples = 70\nvalue = 1.4"] ;
131 -> 132 ;
133 [label="AVGFTAG <= 1.7\nmse = 1.2\nsamples = 61\nvalue = 1.3"] ;
132 -> 133 ;
134 [label="AST_1 <= 3.5\nmse = 1.2\nsamples = 60\nvalue = 1.4"] ;
133 -> 134 ;
135 [label="AST_2 <= 3.5\nmse = 1.3\nsamples = 40\nvalue = 1.6"] ;
134 -> 135 ;
136 [label="AVGATGDIFF <= -0.6\nmse = 1.7\nsamples = 22\nvalue = 1.8"] ;
135 -> 136 ;
137 [label="Month <= 8.5\nmse = 0.2\nsamples = 3\nvalue = 2.4"] ;
136 -> 137 ;
138 [label="mse = 0.0\nsamples = 1\nvalue = 2.0"] ;
137 -> 138 ;
139 [label="AVGFTAG <= 1.1\nmse = 0.2\nsamples = 2\nvalue = 2.6"] ;
137 -> 139 ;
140 [label="mse = 0.0\nsamples = 1\nvalue = 3.0"] ;
139 -> 140 ;
141 [label="mse = 0.0\nsamples = 1\nvalue = 2.0"] ;
139 -> 141 ;
142 [label="AVGATGDIFF <= -0.2\nmse = 2.0\nsamples = 19\nvalue = 1.6"] ;
136 -> 142 ;
143 [label="mse = 0.0\nsamples = 1\nvalue = 0.0"] ;
142 -> 143 ;
144 [label="Month <= 8.5\nmse = 1.9\nsamples = 18\nvalue = 1.7"] ;
142 -> 144 ;
145 [label="AST_2 <= 0.5\nmse = 0.7\nsamples = 3\nvalue = 1.0"] ;
144 -> 145 ;
146 [label="AST_1 <= 0.5\nmse = 0.2\nsamples = 2\nvalue = 1.5"] ;
145 -> 146 ;
147 [label="mse = 0.0\nsamples = 1\nvalue = 2.0"] ;
146 -> 147 ;
148 [label="mse = 0.0\nsamples = 1\nvalue = 1.0"] ;
146 -> 148 ;
149 [label="mse = 0.0\nsamples = 1\nvalue = 0.0"] ;
145 -> 149 ;
150 [label="AST_2 <= 2.5\nmse = 2.0\nsamples = 15\nvalue = 1.8"] ;
144 -> 150 ;
151 [label="Month <= 9.5\nmse = 2.2\nsamples = 10\nvalue = 1.8"] ;
150 -> 151 ;
152 [label="AST_1 <= 0.5\nmse = 1.8\nsamples = 4\nvalue = 1.6"] ;
151 -> 152 ;
153 [label="mse = 0.0\nsamples = 1\nvalue = 4.0"] ;
152 -> 153 ;
154 [label="AST_1 <= 1.5\nmse = 0.1\nsamples = 3\nvalue = 0.9"] ;
152 -> 154 ;
155 [label="mse = 0.0\nsamples = 1\nvalue = 0.0"] ;
154 -> 155 ;
156 [label="mse = 0.0\nsamples = 2\nvalue = 1.0"] ;
154 -> 156 ;
157 [label="AST_1 <= 2.5\nmse = 2.5\nsamples = 6\nvalue = 2.1"] ;
151 -> 157 ;
158 [label="AST_1 <= 0.5\nmse = 0.9\nsamples = 5\nvalue = 1.7"] ;
157 -> 158 ;
159 [label="mse = 1.0\nsamples = 3\nvalue = 1.2"] ;
158 -> 159 ;
160 [label="AST_1 <= 1.5\nmse = 0.2\nsamples = 2\nvalue = 2.2"] ;
158 -> 160 ;
161 [label="mse = 0.0\nsamples = 1\nvalue = 2.0"] ;
160 -> 161 ;
162 [label="mse = 0.0\nsamples = 1\nvalue = 3.0"] ;
160 -> 162 ;
163 [label="mse = 0.0\nsamples = 1\nvalue = 6.0"] ;
157 -> 163 ;
164 [label="Month <= 10.0\nmse = 1.2\nsamples = 5\nvalue = 1.5"] ;
150 -> 164 ;
165 [label="AST_1 <= 1.5\nmse = 1.0\nsamples = 4\nvalue = 1.8"] ;
164 -> 165 ;
166 [label="mse = 0.0\nsamples = 2\nvalue = 2.0"] ;
165 -> 166 ;
167 [label="mse = 2.2\nsamples = 2\nvalue = 1.5"] ;
165 -> 167 ;
168 [label="mse = 0.0\nsamples = 1\nvalue = 0.0"] ;
164 -> 168 ;
169 [label="AVGFTAG <= 1.3\nmse = 0.7\nsamples = 18\nvalue = 1.3"] ;
135 -> 169 ;
170 [label="Month <= 10.5\nmse = 0.6\nsamples = 13\nvalue = 1.0"] ;
169 -> 170 ;
171 [label="AST_1 <= 1.5\nmse = 0.5\nsamples = 11\nvalue = 1.2"] ;
170 -> 171 ;
172 [label="mse = 0.0\nsamples = 2\nvalue = 2.0"] ;
171 -> 172 ;
173 [label="AST_1 <= 2.5\nmse = 0.4\nsamples = 9\nvalue = 1.0"] ;
171 -> 173 ;
174 [label="AVGFTAG <= 0.6\nmse = 0.2\nsamples = 4\nvalue = 0.8"] ;
173 -> 174 ;
175 [label="mse = 0.2\nsamples = 3\nvalue = 0.7"] ;
174 -> 175 ;
176 [label="mse = 0.0\nsamples = 1\nvalue = 1.0"] ;
174 -> 176 ;
177 [label="AST_2 <= 6.5\nmse = 0.6\nsamples = 5\nvalue = 1.3"] ;
173 -> 177 ;
178 [label="AST_2 <= 5.0\nmse = 0.6\nsamples = 4\nvalue = 1.2"] ;
177 -> 178 ;
179 [label="Month <= 8.5\nmse = 0.2\nsamples = 3\nvalue = 1.5"] ;
178 -> 179 ;
180 [label="mse = 0.0\nsamples = 2\nvalue = 1.0"] ;
179 -> 180 ;
181 [label="mse = 0.0\nsamples = 1\nvalue = 2.0"] ;
179 -> 181 ;
182 [label="mse = 0.0\nsamples = 1\nvalue = 0.0"] ;
178 -> 182 ;
183 [label="mse = 0.0\nsamples = 1\nvalue = 2.0"] ;
177 -> 183 ;
184 [label="mse = 0.0\nsamples = 2\nvalue = 0.0"] ;
170 -> 184 ;
185 [label="AVGATGDIFF <= -0.4\nmse = 0.4\nsamples = 5\nvalue = 1.8"] ;
169 -> 185 ;
186 [label="mse = 0.0\nsamples = 2\nvalue = 1.0"] ;
185 -> 186 ;
187 [label="AST_2 <= 5.5\nmse = 0.1\nsamples = 3\nvalue = 2.1"] ;
185 -> 187 ;
188 [label="mse = 0.0\nsamples = 1\nvalue = 3.0"] ;
187 -> 188 ;
189 [label="mse = 0.0\nsamples = 2\nvalue = 2.0"] ;
187 -> 189 ;
190 [label="AST_2 <= 4.5\nmse = 0.6\nsamples = 20\nvalue = 1.0"] ;
134 -> 190 ;
191 [label="AVGFTAG <= 1.1\nmse = 0.4\nsamples = 13\nvalue = 0.8"] ;
190 -> 191 ;
192 [label="AST_1 <= 4.5\nmse = 0.4\nsamples = 9\nvalue = 0.9"] ;
191 -> 192 ;
193 [label="Month <= 9.5\nmse = 0.3\nsamples = 6\nvalue = 1.1"] ;
192 -> 193 ;
194 [label="AST_2 <= 1.5\nmse = 0.2\nsamples = 4\nvalue = 1.2"] ;
193 -> 194 ;
195 [label="mse = 0.0\nsamples = 1\nvalue = 2.0"] ;
194 -> 195 ;
196 [label="Month <= 8.5\nmse = 0.1\nsamples = 3\nvalue = 1.1"] ;
194 -> 196 ;
197 [label="mse = 0.0\nsamples = 1\nvalue = 1.0"] ;
196 -> 197 ;
198 [label="mse = 0.2\nsamples = 2\nvalue = 1.2"] ;
196 -> 198 ;
199 [label="Month <= 10.5\nmse = 0.2\nsamples = 2\nvalue = 0.5"] ;
193 -> 199 ;
200 [label="mse = 0.0\nsamples = 1\nvalue = 0.0"] ;
199 -> 200 ;
201 [label="mse = 0.0\nsamples = 1\nvalue = 1.0"] ;
199 -> 201 ;
202 [label="Month <= 8.5\nmse = 0.2\nsamples = 3\nvalue = 0.3"] ;
192 -> 202 ;
203 [label="mse = 0.0\nsamples = 1\nvalue = 0.0"] ;
202 -> 203 ;
204 [label="mse = 0.2\nsamples = 2\nvalue = 0.5"] ;
202 -> 204 ;
205 [label="AVGATGDIFF <= -0.3\nmse = 0.2\nsamples = 4\nvalue = 0.2"] ;
191 -> 205 ;
206 [label="mse = 0.0\nsamples = 3\nvalue = 0.0"] ;
205 -> 206 ;
207 [label="mse = 0.0\nsamples = 1\nvalue = 1.0"] ;
205 -> 207 ;
208 [label="AST_2 <= 5.5\nmse = 0.7\nsamples = 7\nvalue = 1.4"] ;
190 -> 208 ;
209 [label="AST_1 <= 4.5\nmse = 0.9\nsamples = 2\nvalue = 2.3"] ;
208 -> 209 ;
210 [label="mse = 0.0\nsamples = 1\nvalue = 1.0"] ;
209 -> 210 ;
211 [label="mse = 0.0\nsamples = 1\nvalue = 3.0"] ;
209 -> 211 ;
212 [label="mse = 0.0\nsamples = 5\nvalue = 1.0"] ;
208 -> 212 ;
213 [label="mse = 0.0\nsamples = 1\nvalue = 0.0"] ;
133 -> 213 ;
214 [label="AVGFTAG <= 1.4\nmse = 3.4\nsamples = 9\nvalue = 2.1"] ;
132 -> 214 ;
215 [label="AST_1 <= 4.5\nmse = 1.5\nsamples = 7\nvalue = 1.2"] ;
214 -> 215 ;
216 [label="AST_2 <= 0.5\nmse = 0.8\nsamples = 6\nvalue = 0.7"] ;
215 -> 216 ;
217 [label="mse = 0.0\nsamples = 1\nvalue = 2.0"] ;
216 -> 217 ;
218 [label="AST_2 <= 6.5\nmse = 0.6\nsamples = 5\nvalue = 0.5"] ;
216 -> 218 ;
219 [label="AST_1 <= 3.5\nmse = 0.2\nsamples = 4\nvalue = 0.2"] ;
218 -> 219 ;
220 [label="mse = 0.0\nsamples = 2\nvalue = 0.0"] ;
219 -> 220 ;
221 [label="AST_2 <= 2.0\nmse = 0.2\nsamples = 2\nvalue = 0.5"] ;
219 -> 221 ;
222 [label="mse = 0.0\nsamples = 1\nvalue = 0.0"] ;
221 -> 222 ;
223 [label="mse = 0.0\nsamples = 1\nvalue = 1.0"] ;
221 -> 223 ;
224 [label="mse = 0.0\nsamples = 1\nvalue = 2.0"] ;
218 -> 224 ;
225 [label="mse = 0.0\nsamples = 1\nvalue = 3.0"] ;
215 -> 225 ;
226 [label="AST_2 <= 4.0\nmse = 0.2\nsamples = 2\nvalue = 4.7"] ;
214 -> 226 ;
227 [label="mse = 0.0\nsamples = 1\nvalue = 4.0"] ;
226 -> 227 ;
228 [label="mse = 0.0\nsamples = 1\nvalue = 5.0"] ;
226 -> 228 ;
229 [label="Month <= 8.5\nmse = 3.5\nsamples = 4\nvalue = 3.0"] ;
131 -> 229 ;
230 [label="mse = 0.0\nsamples = 1\nvalue = 0.0"] ;
229 -> 230 ;
231 [label="AVGATGDIFF <= 0.2\nmse = 0.7\nsamples = 3\nvalue = 4.0"] ;
229 -> 231 ;
232 [label="mse = 0.0\nsamples = 1\nvalue = 5.0"] ;
231 -> 232 ;
233 [label="AST_2 <= 3.5\nmse = 0.2\nsamples = 2\nvalue = 3.5"] ;
231 -> 233 ;
234 [label="mse = 0.0\nsamples = 1\nvalue = 3.0"] ;
233 -> 234 ;
235 [label="mse = 0.0\nsamples = 1\nvalue = 4.0"] ;
233 -> 235 ;
236 [label="AST_2 <= 1.5\nmse = 1.0\nsamples = 35\nvalue = 1.1"] ;
130 -> 236 ;
237 [label="AST_1 <= 9.0\nmse = 0.2\nsamples = 9\nvalue = 0.7"] ;
236 -> 237 ;
238 [label="Month <= 11.5\nmse = 0.2\nsamples = 8\nvalue = 0.8"] ;
237 -> 238 ;
239 [label="AVGATGDIFF <= -0.2\nmse = 0.1\nsamples = 7\nvalue = 0.9"] ;
238 -> 239 ;
240 [label="mse = 0.0\nsamples = 1\nvalue = 0.0"] ;
239 -> 240 ;
241 [label="mse = 0.0\nsamples = 6\nvalue = 1.0"] ;
239 -> 241 ;
242 [label="mse = 0.0\nsamples = 1\nvalue = 0.0"] ;
238 -> 242 ;
243 [label="mse = 0.0\nsamples = 1\nvalue = 0.0"] ;
237 -> 243 ;
244 [label="AST_1 <= 9.5\nmse = 1.3\nsamples = 26\nvalue = 1.3"] ;
236 -> 244 ;
245 [label="AST_2 <= 6.5\nmse = 0.7\nsamples = 24\nvalue = 1.1"] ;
244 -> 245 ;
246 [label="AST_1 <= 7.5\nmse = 0.7\nsamples = 23\nvalue = 1.2"] ;
245 -> 246 ;
247 [label="Month <= 8.5\nmse = 0.6\nsamples = 17\nvalue = 1.4"] ;
246 -> 247 ;
248 [label="AVGFTAG <= 0.6\nmse = 0.5\nsamples = 3\nvalue = 1.0"] ;
247 -> 248 ;
249 [label="mse = 0.0\nsamples = 1\nvalue = 0.0"] ;
248 -> 249 ;
250 [label="AVGFTAG <= 1.4\nmse = 0.2\nsamples = 2\nvalue = 1.3"] ;
248 -> 250 ;
251 [label="mse = 0.0\nsamples = 1\nvalue = 2.0"] ;
250 -> 251 ;
252 [label="mse = 0.0\nsamples = 1\nvalue = 1.0"] ;
250 -> 252 ;
253 [label="AST_1 <= 6.5\nmse = 0.5\nsamples = 14\nvalue = 1.5"] ;
247 -> 253 ;
254 [label="mse = 0.0\nsamples = 4\nvalue = 2.0"] ;
253 -> 254 ;
255 [label="AVGFTAG <= 1.4\nmse = 0.6\nsamples = 10\nvalue = 1.3"] ;
253 -> 255 ;
256 [label="AST_2 <= 4.5\nmse = 0.8\nsamples = 7\nvalue = 1.1"] ;
255 -> 256 ;
257 [label="Month <= 11.0\nmse = 0.5\nsamples = 5\nvalue = 1.4"] ;
256 -> 257 ;
258 [label="AST_2 <= 3.0\nmse = 1.0\nsamples = 2\nvalue = 1.0"] ;
257 -> 258 ;
259 [label="mse = 0.0\nsamples = 1\nvalue = 0.0"] ;
258 -> 259 ;
260 [label="mse = 0.0\nsamples = 1\nvalue = 2.0"] ;
258 -> 260 ;
261 [label="AST_2 <= 3.0\nmse = 0.2\nsamples = 3\nvalue = 1.6"] ;
257 -> 261 ;
262 [label="mse = 0.0\nsamples = 1\nvalue = 2.0"] ;
261 -> 262 ;
263 [label="mse = 0.0\nsamples = 2\nvalue = 1.0"] ;
261 -> 263 ;
264 [label="mse = 0.0\nsamples = 2\nvalue = 0.0"] ;
256 -> 264 ;
265 [label="AVGATGDIFF <= 0.1\nmse = 0.2\nsamples = 3\nvalue = 1.7"] ;
255 -> 265 ;
266 [label="mse = 0.0\nsamples = 2\nvalue = 2.0"] ;
265 -> 266 ;
267 [label="mse = 0.0\nsamples = 1\nvalue = 1.0"] ;
265 -> 267 ;
268 [label="Month <= 11.0\nmse = 0.5\nsamples = 6\nvalue = 0.6"] ;
246 -> 268 ;
269 [label="AST_2 <= 2.5\nmse = 0.1\nsamples = 4\nvalue = 0.2"] ;
268 -> 269 ;
270 [label="mse = 0.0\nsamples = 1\nvalue = 1.0"] ;
269 -> 270 ;
271 [label="mse = 0.0\nsamples = 3\nvalue = 0.0"] ;
269 -> 271 ;
272 [label="AST_2 <= 4.0\nmse = 0.2\nsamples = 2\nvalue = 1.3"] ;
268 -> 272 ;
273 [label="mse = 0.0\nsamples = 1\nvalue = 1.0"] ;
272 -> 273 ;
274 [label="mse = 0.0\nsamples = 1\nvalue = 2.0"] ;
272 -> 274 ;
275 [label="mse = 0.0\nsamples = 1\nvalue = 0.0"] ;
245 -> 275 ;
276 [label="Month <= 10.5\nmse = 3.0\nsamples = 2\nvalue = 3.0"] ;
244 -> 276 ;
277 [label="mse = 0.0\nsamples = 1\nvalue = 4.0"] ;
276 -> 277 ;
278 [label="mse = 0.0\nsamples = 1\nvalue = 0.0"] ;
276 -> 278 ;
279 [label="AST_1 <= 4.5\nmse = 0.2\nsamples = 5\nvalue = 0.5"] ;
129 -> 279 ;
280 [label="mse = 0.0\nsamples = 2\nvalue = 1.0"] ;
279 -> 280 ;
281 [label="mse = 0.0\nsamples = 3\nvalue = 0.0"] ;
279 -> 281 ;
282 [label="AST_1 <= 3.5\nmse = 1.7\nsamples = 18\nvalue = 2.1"] ;
128 -> 282 ;
283 [label="Month <= 9.5\nmse = 0.2\nsamples = 4\nvalue = 0.6"] ;
282 -> 283 ;
284 [label="mse = 0.0\nsamples = 1\nvalue = 1.0"] ;
283 -> 284 ;
285 [label="AST_2 <= 9.5\nmse = 0.2\nsamples = 3\nvalue = 0.3"] ;
283 -> 285 ;
286 [label="mse = 0.0\nsamples = 2\nvalue = 0.0"] ;
285 -> 286 ;
287 [label="mse = 0.0\nsamples = 1\nvalue = 1.0"] ;
285 -> 287 ;
288 [label="AVGFTAG <= 1.5\nmse = 1.4\nsamples = 14\nvalue = 2.4"] ;
282 -> 288 ;
289 [label="AST_2 <= 10.5\nmse = 1.1\nsamples = 12\nvalue = 2.6"] ;
288 -> 289 ;
290 [label="AVGATGDIFF <= -0.5\nmse = 1.0\nsamples = 11\nvalue = 2.5"] ;
289 -> 290 ;
291 [label="mse = 0.0\nsamples = 1\nvalue = 3.0"] ;
290 -> 291 ;
292 [label="AST_1 <= 7.5\nmse = 1.1\nsamples = 10\nvalue = 2.3"] ;
290 -> 292 ;
293 [label="AST_1 <= 5.5\nmse = 0.5\nsamples = 7\nvalue = 2.1"] ;
292 -> 293 ;
294 [label="Month <= 10.5\nmse = 0.4\nsamples = 6\nvalue = 2.2"] ;
293 -> 294 ;
295 [label="AVGATGDIFF <= -0.1\nmse = 0.2\nsamples = 3\nvalue = 2.8"] ;
294 -> 295 ;
296 [label="mse = 0.0\nsamples = 1\nvalue = 2.0"] ;
295 -> 296 ;
297 [label="mse = 0.0\nsamples = 2\nvalue = 3.0"] ;
295 -> 297 ;
298 [label="AST_2 <= 9.5\nmse = 0.2\nsamples = 3\nvalue = 1.8"] ;
294 -> 298 ;
299 [label="Month <= 11.5\nmse = 0.2\nsamples = 2\nvalue = 1.5"] ;
298 -> 299 ;
300 [label="mse = 0.0\nsamples = 1\nvalue = 1.0"] ;
299 -> 300 ;
301 [label="mse = 0.0\nsamples = 1\nvalue = 2.0"] ;
299 -> 301 ;
302 [label="mse = 0.0\nsamples = 1\nvalue = 2.0"] ;
298 -> 302 ;
303 [label="mse = 0.0\nsamples = 1\nvalue = 1.0"] ;
293 -> 303 ;
304 [label="AST_1 <= 9.5\nmse = 2.7\nsamples = 3\nvalue = 3.0"] ;
292 -> 304 ;
305 [label="mse = 0.0\nsamples = 1\nvalue = 5.0"] ;
304 -> 305 ;
306 [label="Month <= 10.0\nmse = 1.0\nsamples = 2\nvalue = 2.0"] ;
304 -> 306 ;
307 [label="mse = 0.0\nsamples = 1\nvalue = 1.0"] ;
306 -> 307 ;
308 [label="mse = 0.0\nsamples = 1\nvalue = 3.0"] ;
306 -> 308 ;
309 [label="mse = 0.0\nsamples = 1\nvalue = 4.0"] ;
289 -> 309 ;
310 [label="Month <= 10.5\nmse = 0.2\nsamples = 2\nvalue = 0.5"] ;
288 -> 310 ;
311 [label="mse = 0.0\nsamples = 1\nvalue = 0.0"] ;
310 -> 311 ;
312 [label="mse = 0.0\nsamples = 1\nvalue = 1.0"] ;
310 -> 312 ;
313 [label="AST_2 <= 5.5\nmse = 1.4\nsamples = 5\nvalue = 2.7"] ;
1 -> 313 ;
314 [label="AVGATGDIFF <= 0.4\nmse = 0.2\nsamples = 2\nvalue = 3.7"] ;
313 -> 314 ;
315 [label="mse = 0.0\nsamples = 1\nvalue = 3.0"] ;
314 -> 315 ;
316 [label="mse = 0.0\nsamples = 1\nvalue = 4.0"] ;
314 -> 316 ;
317 [label="Month <= 3.5\nmse = 0.2\nsamples = 3\nvalue = 1.5"] ;
313 -> 317 ;
318 [label="mse = 0.0\nsamples = 1\nvalue = 1.0"] ;
317 -> 318 ;
319 [label="mse = 0.0\nsamples = 2\nvalue = 2.0"] ;
317 -> 319 ;
320 [label="AVGFTAG <= 2.5\nmse = 1.6\nsamples = 15\nvalue = 3.2"] ;
0 -> 320 [labeldistance=2.5, labelangle=-45, headlabel="False"] ;
321 [label="AVGFTAG <= 2.5\nmse = 0.3\nsamples = 7\nvalue = 4.1"] ;
320 -> 321 ;
322 [label="Month <= 4.5\nmse = 0.1\nsamples = 5\nvalue = 3.9"] ;
321 -> 322 ;
323 [label="mse = 0.0\nsamples = 1\nvalue = 3.0"] ;
322 -> 323 ;
324 [label="mse = 0.0\nsamples = 4\nvalue = 4.0"] ;
322 -> 324 ;
325 [label="mse = 0.0\nsamples = 2\nvalue = 5.0"] ;
321 -> 325 ;
326 [label="AST_2 <= 5.5\nmse = 1.5\nsamples = 8\nvalue = 2.4"] ;
320 -> 326 ;
327 [label="AST_2 <= 4.5\nmse = 0.7\nsamples = 3\nvalue = 0.8"] ;
326 -> 327 ;
328 [label="AST_2 <= 3.5\nmse = 0.2\nsamples = 2\nvalue = 1.5"] ;
327 -> 328 ;
329 [label="mse = 0.0\nsamples = 1\nvalue = 1.0"] ;
328 -> 329 ;
330 [label="mse = 0.0\nsamples = 1\nvalue = 2.0"] ;
328 -> 330 ;
331 [label="mse = 0.0\nsamples = 1\nvalue = 0.0"] ;
327 -> 331 ;
332 [label="AST_1 <= 7.5\nmse = 0.1\nsamples = 5\nvalue = 3.1"] ;
326 -> 332 ;
333 [label="mse = 0.0\nsamples = 4\nvalue = 3.0"] ;
332 -> 333 ;
334 [label="mse = 0.0\nsamples = 1\nvalue = 4.0"] ;
332 -> 334 ;
}